digraph Tree {
node [shape=box, style="filled, rounded", color="black", fontname=helvetica] ;
edge [fontname=helvetica] ;
0 [label="diff_time <= 42.5\ngini = 0.259\nsamples = 9600\nvalue = [8135, 1465]\nclass = False", fillcolor="#e58139d1"] ;
1 [label="diff_time <= 7.5\ngini = 0.041\nsamples = 8145\nvalue = [7974, 171]\nclass = False", fillcolor="#e58139fa"] ;
0 -> 1 [labeldistance=2.5, labelangle=45, headlabel="True"] ;
2 [label="diff_time <= 4.5\ngini = 0.001\nsamples = 7609\nvalue = [7605, 4]\nclass = False", fillcolor="#e58139ff"] ;
1 -> 2 ;
3 [label="gini = 0.0\nsamples = 7424\nvalue = [7424, 0]\nclass = False", fillcolor="#e58139ff"] ;
2 -> 3 ;
4 [label="domain_gmail.com <= 0.5\ngini = 0.042\nsamples = 185\nvalue = [181, 4]\nclass = False", fillcolor="#e58139f9"] ;
2 -> 4 ;
5 [label="gini = 0.0\nsamples = 122\nvalue = [122, 0]\nclass = False", fillcolor="#e58139ff"] ;
4 -> 5 ;
6 [label="org_size_21-50 <= 0.5\ngini = 0.119\nsamples = 63\nvalue = [59, 4]\nclass = False", fillcolor="#e58139ee"] ;
4 -> 6 ;
7 [label="is_invited <= 0.5\ngini = 0.188\nsamples = 38\nvalue = [34, 4]\nclass = False", fillcolor="#e58139e1"] ;
6 -> 7 ;
8 [label="enabled_for_marketing_drip <= 0.5\ngini = 0.133\nsamples = 28\nvalue = [26, 2]\nclass = False", fillcolor="#e58139eb"] ;
7 -> 8 ;
9 [label="org_size_51-100 <= 0.5\ngini = 0.087\nsamples = 22\nvalue = [21, 1]\nclass = False", fillcolor="#e58139f3"] ;
8 -> 9 ;
10 [label="gini = 0.0\nsamples = 15\nvalue = [15, 0]\nclass = False", fillcolor="#e58139ff"] ;
9 -> 10 ;
11 [label="diff_time <= 5.5\ngini = 0.245\nsamples = 7\nvalue = [6, 1]\nclass = False", fillcolor="#e58139d4"] ;
9 -> 11 ;
12 [label="opted_in_to_mailing_list <= 0.5\ngini = 0.5\nsamples = 2\nvalue = [1, 1]\nclass = False", fillcolor="#e5813900"] ;
11 -> 12 ;
13 [label="gini = 0.0\nsamples = 1\nvalue = [0, 1]\nclass = True", fillcolor="#399de5ff"] ;
12 -> 13 ;
14 [label="gini = 0.0\nsamples = 1\nvalue = [1, 0]\nclass = False", fillcolor="#e58139ff"] ;
12 -> 14 ;
15 [label="gini = 0.0\nsamples = 5\nvalue = [5, 0]\nclass = False", fillcolor="#e58139ff"] ;
11 -> 15 ;
16 [label="org_size_100+ <= 0.5\ngini = 0.278\nsamples = 6\nvalue = [5, 1]\nclass = False", fillcolor="#e58139cc"] ;
8 -> 16 ;
17 [label="gini = 0.0\nsamples = 3\nvalue = [3, 0]\nclass = False", fillcolor="#e58139ff"] ;
16 -> 17 ;
18 [label="creation_source_SIGNUP <= 0.5\ngini = 0.444\nsamples = 3\nvalue = [2, 1]\nclass = False", fillcolor="#e581397f"] ;
16 -> 18 ;
19 [label="gini = 0.5\nsamples = 2\nvalue = [1, 1]\nclass = False", fillcolor="#e5813900"] ;
18 -> 19 ;
20 [label="gini = 0.0\nsamples = 1\nvalue = [1, 0]\nclass = False", fillcolor="#e58139ff"] ;
18 -> 20 ;
21 [label="diff_time <= 6.5\ngini = 0.32\nsamples = 10\nvalue = [8, 2]\nclass = False", fillcolor="#e58139bf"] ;
7 -> 21 ;
22 [label="invited_1-3 <= 0.5\ngini = 0.219\nsamples = 8\nvalue = [7, 1]\nclass = False", fillcolor="#e58139db"] ;
21 -> 22 ;
23 [label="invited_with_1-3 <= 0.5\ngini = 0.32\nsamples = 5\nvalue = [4, 1]\nclass = False", fillcolor="#e58139bf"] ;
22 -> 23 ;
24 [label="creation_source_ORG_INVITE <= 0.5\ngini = 0.5\nsamples = 2\nvalue = [1, 1]\nclass = False", fillcolor="#e5813900"] ;
23 -> 24 ;
25 [label="gini = 0.0\nsamples = 1\nvalue = [0, 1]\nclass = True", fillcolor="#399de5ff"] ;
24 -> 25 ;
26 [label="gini = 0.0\nsamples = 1\nvalue = [1, 0]\nclass = False", fillcolor="#e58139ff"] ;
24 -> 26 ;
27 [label="gini = 0.0\nsamples = 3\nvalue = [3, 0]\nclass = False", fillcolor="#e58139ff"] ;
23 -> 27 ;
28 [label="gini = 0.0\nsamples = 3\nvalue = [3, 0]\nclass = False", fillcolor="#e58139ff"] ;
22 -> 28 ;
29 [label="invited_1-3 <= 0.5\ngini = 0.5\nsamples = 2\nvalue = [1, 1]\nclass = False", fillcolor="#e5813900"] ;
21 -> 29 ;
30 [label="gini = 0.0\nsamples = 1\nvalue = [1, 0]\nclass = False", fillcolor="#e58139ff"] ;
29 -> 30 ;
31 [label="gini = 0.0\nsamples = 1\nvalue = [0, 1]\nclass = True", fillcolor="#399de5ff"] ;
29 -> 31 ;
32 [label="gini = 0.0\nsamples = 25\nvalue = [25, 0]\nclass = False", fillcolor="#e58139ff"] ;
6 -> 32 ;
33 [label="diff_time <= 14.5\ngini = 0.429\nsamples = 536\nvalue = [369, 167]\nclass = False", fillcolor="#e581398c"] ;
1 -> 33 ;
34 [label="domain_fake <= 0.5\ngini = 0.35\nsamples = 124\nvalue = [96, 28]\nclass = False", fillcolor="#e58139b5"] ;
33 -> 34 ;
35 [label="opted_in_to_mailing_list <= 0.5\ngini = 0.373\nsamples = 113\nvalue = [85, 28]\nclass = False", fillcolor="#e58139ab"] ;
34 -> 35 ;
36 [label="invited_with_1-3 <= 0.5\ngini = 0.329\nsamples = 82\nvalue = [65, 17]\nclass = False", fillcolor="#e58139bc"] ;
35 -> 36 ;
37 [label="domain_jourrapide.com <= 0.5\ngini = 0.281\nsamples = 65\nvalue = [54, 11]\nclass = False", fillcolor="#e58139cb"] ;
36 -> 37 ;
38 [label="domain_gustr.com <= 0.5\ngini = 0.32\nsamples = 55\nvalue = [44, 11]\nclass = False", fillcolor="#e58139bf"] ;
37 -> 38 ;
39 [label="creation_source_SIGNUP_GOOGLE_AUTH <= 0.5\ngini = 0.364\nsamples = 46\nvalue = [35, 11]\nclass = False", fillcolor="#e58139af"] ;
38 -> 39 ;
40 [label="domain_hotmail.com <= 0.5\ngini = 0.415\nsamples = 34\nvalue = [24, 10]\nclass = False", fillcolor="#e5813995"] ;
39 -> 40 ;
41 [label="invited_1-3 <= 0.5\ngini = 0.444\nsamples = 30\nvalue = [20, 10]\nclass = False", fillcolor="#e581397f"] ;
40 -> 41 ;
42 [label="domain_gmail.com <= 0.5\ngini = 0.417\nsamples = 27\nvalue = [19, 8]\nclass = False", fillcolor="#e5813994"] ;
41 -> 42 ;
43 [label="diff_time <= 9.0\ngini = 0.469\nsamples = 16\nvalue = [10, 6]\nclass = False", fillcolor="#e5813966"] ;
42 -> 43 ;
44 [label="creation_source_PERSONAL_PROJECTS <= 0.5\ngini = 0.32\nsamples = 5\nvalue = [4, 1]\nclass = False", fillcolor="#e58139bf"] ;
43 -> 44 ;
45 [label="gini = 0.0\nsamples = 3\nvalue = [3, 0]\nclass = False", fillcolor="#e58139ff"] ;
44 -> 45 ;
46 [label="domain_yahoo.com <= 0.5\ngini = 0.5\nsamples = 2\nvalue = [1, 1]\nclass = False", fillcolor="#e5813900"] ;
44 -> 46 ;
47 [label="gini = 0.0\nsamples = 1\nvalue = [0, 1]\nclass = True", fillcolor="#399de5ff"] ;
46 -> 47 ;
48 [label="gini = 0.0\nsamples = 1\nvalue = [1, 0]\nclass = False", fillcolor="#e58139ff"] ;
46 -> 48 ;
49 [label="creation_source_PERSONAL_PROJECTS <= 0.5\ngini = 0.496\nsamples = 11\nvalue = [6, 5]\nclass = False", fillcolor="#e581392a"] ;
43 -> 49 ;
50 [label="diff_time <= 13.5\ngini = 0.494\nsamples = 9\nvalue = [4, 5]\nclass = True", fillcolor="#399de533"] ;
49 -> 50 ;
51 [label="org_size_51-100 <= 0.5\ngini = 0.469\nsamples = 8\nvalue = [3, 5]\nclass = True", fillcolor="#399de566"] ;
50 -> 51 ;
52 [label="diff_time <= 11.5\ngini = 0.32\nsamples = 5\nvalue = [1, 4]\nclass = True", fillcolor="#399de5bf"] ;
51 -> 52 ;
53 [label="gini = 0.0\nsamples = 3\nvalue = [0, 3]\nclass = True", fillcolor="#399de5ff"] ;
52 -> 53 ;
54 [label="creation_source_SIGNUP <= 0.5\ngini = 0.5\nsamples = 2\nvalue = [1, 1]\nclass = False", fillcolor="#e5813900"] ;
52 -> 54 ;
55 [label="gini = 0.0\nsamples = 1\nvalue = [1, 0]\nclass = False", fillcolor="#e58139ff"] ;
54 -> 55 ;
56 [label="gini = 0.0\nsamples = 1\nvalue = [0, 1]\nclass = True", fillcolor="#399de5ff"] ;
54 -> 56 ;
57 [label="creation_source_ORG_INVITE <= 0.5\ngini = 0.444\nsamples = 3\nvalue = [2, 1]\nclass = False", fillcolor="#e581397f"] ;
51 -> 57 ;
58 [label="enabled_for_marketing_drip <= 0.5\ngini = 0.5\nsamples = 2\nvalue = [1, 1]\nclass = False", fillcolor="#e5813900"] ;
57 -> 58 ;
59 [label="gini = 0.0\nsamples = 1\nvalue = [0, 1]\nclass = True", fillcolor="#399de5ff"] ;
58 -> 59 ;
60 [label="gini = 0.0\nsamples = 1\nvalue = [1, 0]\nclass = False", fillcolor="#e58139ff"] ;
58 -> 60 ;
61 [label="gini = 0.0\nsamples = 1\nvalue = [1, 0]\nclass = False", fillcolor="#e58139ff"] ;
57 -> 61 ;
62 [label="gini = 0.0\nsamples = 1\nvalue = [1, 0]\nclass = False", fillcolor="#e58139ff"] ;
50 -> 62 ;
63 [label="gini = 0.0\nsamples = 2\nvalue = [2, 0]\nclass = False", fillcolor="#e58139ff"] ;
49 -> 63 ;
64 [label="creation_source_SIGNUP <= 0.5\ngini = 0.298\nsamples = 11\nvalue = [9, 2]\nclass = False", fillcolor="#e58139c6"] ;
42 -> 64 ;
65 [label="gini = 0.0\nsamples = 4\nvalue = [4, 0]\nclass = False", fillcolor="#e58139ff"] ;
64 -> 65 ;
66 [label="enabled_for_marketing_drip <= 0.5\ngini = 0.408\nsamples = 7\nvalue = [5, 2]\nclass = False", fillcolor="#e5813999"] ;
64 -> 66 ;
67 [label="diff_time <= 8.5\ngini = 0.444\nsamples = 6\nvalue = [4, 2]\nclass = False", fillcolor="#e581397f"] ;
66 -> 67 ;
68 [label="gini = 0.0\nsamples = 1\nvalue = [1, 0]\nclass = False", fillcolor="#e58139ff"] ;
67 -> 68 ;
69 [label="diff_time <= 12.0\ngini = 0.48\nsamples = 5\nvalue = [3, 2]\nclass = False", fillcolor="#e5813955"] ;
67 -> 69 ;
70 [label="org_size_21-50 <= 0.5\ngini = 0.5\nsamples = 4\nvalue = [2, 2]\nclass = False", fillcolor="#e5813900"] ;
69 -> 70 ;
71 [label="diff_time <= 10.0\ngini = 0.444\nsamples = 3\nvalue = [2, 1]\nclass = False", fillcolor="#e581397f"] ;
70 -> 71 ;
72 [label="gini = 0.0\nsamples = 1\nvalue = [1, 0]\nclass = False", fillcolor="#e58139ff"] ;
71 -> 72 ;
73 [label="gini = 0.5\nsamples = 2\nvalue = [1, 1]\nclass = False", fillcolor="#e5813900"] ;
71 -> 73 ;
74 [label="gini = 0.0\nsamples = 1\nvalue = [0, 1]\nclass = True", fillcolor="#399de5ff"] ;
70 -> 74 ;
75 [label="gini = 0.0\nsamples = 1\nvalue = [1, 0]\nclass = False", fillcolor="#e58139ff"] ;
69 -> 75 ;
76 [label="gini = 0.0\nsamples = 1\nvalue = [1, 0]\nclass = False", fillcolor="#e58139ff"] ;
66 -> 76 ;
77 [label="creation_source_ORG_INVITE <= 0.5\ngini = 0.444\nsamples = 3\nvalue = [1, 2]\nclass = True", fillcolor="#399de57f"] ;
41 -> 77 ;
78 [label="gini = 0.0\nsamples = 2\nvalue = [0, 2]\nclass = True", fillcolor="#399de5ff"] ;
77 -> 78 ;
79 [label="gini = 0.0\nsamples = 1\nvalue = [1, 0]\nclass = False", fillcolor="#e58139ff"] ;
77 -> 79 ;
80 [label="gini = 0.0\nsamples = 4\nvalue = [4, 0]\nclass = False", fillcolor="#e58139ff"] ;
40 -> 80 ;
81 [label="diff_time <= 9.5\ngini = 0.153\nsamples = 12\nvalue = [11, 1]\nclass = False", fillcolor="#e58139e8"] ;
39 -> 81 ;
82 [label="org_size_21-50 <= 0.5\ngini = 0.375\nsamples = 4\nvalue = [3, 1]\nclass = False", fillcolor="#e58139aa"] ;
81 -> 82 ;
83 [label="gini = 0.0\nsamples = 2\nvalue = [2, 0]\nclass = False", fillcolor="#e58139ff"] ;
82 -> 83 ;
84 [label="diff_time <= 8.5\ngini = 0.5\nsamples = 2\nvalue = [1, 1]\nclass = False", fillcolor="#e5813900"] ;
82 -> 84 ;
85 [label="gini = 0.0\nsamples = 1\nvalue = [1, 0]\nclass = False", fillcolor="#e58139ff"] ;
84 -> 85 ;
86 [label="gini = 0.0\nsamples = 1\nvalue = [0, 1]\nclass = True", fillcolor="#399de5ff"] ;
84 -> 86 ;
87 [label="gini = 0.0\nsamples = 8\nvalue = [8, 0]\nclass = False", fillcolor="#e58139ff"] ;
81 -> 87 ;
88 [label="gini = 0.0\nsamples = 9\nvalue = [9, 0]\nclass = False", fillcolor="#e58139ff"] ;
38 -> 88 ;
89 [label="gini = 0.0\nsamples = 10\nvalue = [10, 0]\nclass = False", fillcolor="#e58139ff"] ;
37 -> 89 ;
90 [label="domain_gmail.com <= 0.5\ngini = 0.457\nsamples = 17\nvalue = [11, 6]\nclass = False", fillcolor="#e5813974"] ;
36 -> 90 ;
91 [label="org_size_100+ <= 0.5\ngini = 0.444\nsamples = 9\nvalue = [3, 6]\nclass = True", fillcolor="#399de57f"] ;
90 -> 91 ;
92 [label="diff_time <= 13.5\ngini = 0.375\nsamples = 8\nvalue = [2, 6]\nclass = True", fillcolor="#399de5aa"] ;
91 -> 92 ;
93 [label="domain_hotmail.com <= 0.5\ngini = 0.245\nsamples = 7\nvalue = [1, 6]\nclass = True", fillcolor="#399de5d4"] ;
92 -> 93 ;
94 [label="gini = 0.0\nsamples = 4\nvalue = [0, 4]\nclass = True", fillcolor="#399de5ff"] ;
93 -> 94 ;
95 [label="creation_source_ORG_INVITE <= 0.5\ngini = 0.444\nsamples = 3\nvalue = [1, 2]\nclass = True", fillcolor="#399de57f"] ;
93 -> 95 ;
96 [label="gini = 0.0\nsamples = 1\nvalue = [1, 0]\nclass = False", fillcolor="#e58139ff"] ;
95 -> 96 ;
97 [label="gini = 0.0\nsamples = 2\nvalue = [0, 2]\nclass = True", fillcolor="#399de5ff"] ;
95 -> 97 ;
98 [label="gini = 0.0\nsamples = 1\nvalue = [1, 0]\nclass = False", fillcolor="#e58139ff"] ;
92 -> 98 ;
99 [label="gini = 0.0\nsamples = 1\nvalue = [1, 0]\nclass = False", fillcolor="#e58139ff"] ;
91 -> 99 ;
100 [label="gini = 0.0\nsamples = 8\nvalue = [8, 0]\nclass = False", fillcolor="#e58139ff"] ;
90 -> 100 ;
101 [label="invited_with_4+ <= 0.5\ngini = 0.458\nsamples = 31\nvalue = [20, 11]\nclass = False", fillcolor="#e5813973"] ;
35 -> 101 ;
102 [label="creation_source_PERSONAL_PROJECTS <= 0.5\ngini = 0.393\nsamples = 26\nvalue = [19, 7]\nclass = False", fillcolor="#e58139a1"] ;
101 -> 102 ;
103 [label="invited_4+ <= 0.5\ngini = 0.33\nsamples = 24\nvalue = [19, 5]\nclass = False", fillcolor="#e58139bc"] ;
102 -> 103 ;
104 [label="domain_hotmail.com <= 0.5\ngini = 0.287\nsamples = 23\nvalue = [19, 4]\nclass = False", fillcolor="#e58139c9"] ;
103 -> 104 ;
105 [label="is_invited <= 0.5\ngini = 0.245\nsamples = 21\nvalue = [18, 3]\nclass = False", fillcolor="#e58139d4"] ;
104 -> 105 ;
106 [label="diff_time <= 9.5\ngini = 0.397\nsamples = 11\nvalue = [8, 3]\nclass = False", fillcolor="#e581399f"] ;
105 -> 106 ;
107 [label="gini = 0.0\nsamples = 3\nvalue = [3, 0]\nclass = False", fillcolor="#e58139ff"] ;
106 -> 107 ;
108 [label="diff_time <= 11.0\ngini = 0.469\nsamples = 8\nvalue = [5, 3]\nclass = False", fillcolor="#e5813966"] ;
106 -> 108 ;
109 [label="gini = 0.0\nsamples = 1\nvalue = [0, 1]\nclass = True", fillcolor="#399de5ff"] ;
108 -> 109 ;
110 [label="org_size_21-50 <= 0.5\ngini = 0.408\nsamples = 7\nvalue = [5, 2]\nclass = False", fillcolor="#e5813999"] ;
108 -> 110 ;
111 [label="gini = 0.0\nsamples = 1\nvalue = [0, 1]\nclass = True", fillcolor="#399de5ff"] ;
110 -> 111 ;
112 [label="creation_source_SIGNUP <= 0.5\ngini = 0.278\nsamples = 6\nvalue = [5, 1]\nclass = False", fillcolor="#e58139cc"] ;
110 -> 112 ;
113 [label="gini = 0.0\nsamples = 4\nvalue = [4, 0]\nclass = False", fillcolor="#e58139ff"] ;
112 -> 113 ;
114 [label="invited_1-3 <= 0.5\ngini = 0.5\nsamples = 2\nvalue = [1, 1]\nclass = False", fillcolor="#e5813900"] ;
112 -> 114 ;
115 [label="gini = 0.0\nsamples = 1\nvalue = [1, 0]\nclass = False", fillcolor="#e58139ff"] ;
114 -> 115 ;
116 [label="gini = 0.0\nsamples = 1\nvalue = [0, 1]\nclass = True", fillcolor="#399de5ff"] ;
114 -> 116 ;
117 [label="gini = 0.0\nsamples = 10\nvalue = [10, 0]\nclass = False", fillcolor="#e58139ff"] ;
105 -> 117 ;
118 [label="org_size_51-100 <= 0.5\ngini = 0.5\nsamples = 2\nvalue = [1, 1]\nclass = False", fillcolor="#e5813900"] ;
104 -> 118 ;
119 [label="gini = 0.0\nsamples = 1\nvalue = [0, 1]\nclass = True", fillcolor="#399de5ff"] ;
118 -> 119 ;
120 [label="gini = 0.0\nsamples = 1\nvalue = [1, 0]\nclass = False", fillcolor="#e58139ff"] ;
118 -> 120 ;
121 [label="gini = 0.0\nsamples = 1\nvalue = [0, 1]\nclass = True", fillcolor="#399de5ff"] ;
103 -> 121 ;
122 [label="gini = 0.0\nsamples = 2\nvalue = [0, 2]\nclass = True", fillcolor="#399de5ff"] ;
102 -> 122 ;
123 [label="domain_yahoo.com <= 0.5\ngini = 0.32\nsamples = 5\nvalue = [1, 4]\nclass = True", fillcolor="#399de5bf"] ;
101 -> 123 ;
124 [label="gini = 0.0\nsamples = 4\nvalue = [0, 4]\nclass = True", fillcolor="#399de5ff"] ;
123 -> 124 ;
125 [label="gini = 0.0\nsamples = 1\nvalue = [1, 0]\nclass = False", fillcolor="#e58139ff"] ;
123 -> 125 ;
126 [label="gini = 0.0\nsamples = 11\nvalue = [11, 0]\nclass = False", fillcolor="#e58139ff"] ;
34 -> 126 ;
127 [label="creation_source_SIGNUP <= 0.5\ngini = 0.447\nsamples = 412\nvalue = [273, 139]\nclass = False", fillcolor="#e581397d"] ;
33 -> 127 ;
128 [label="domain_jourrapide.com <= 0.5\ngini = 0.43\nsamples = 333\nvalue = [229, 104]\nclass = False", fillcolor="#e581398b"] ;
127 -> 128 ;
129 [label="is_invited <= 0.5\ngini = 0.443\nsamples = 302\nvalue = [202, 100]\nclass = False", fillcolor="#e5813981"] ;
128 -> 129 ;
130 [label="org_size_51-100 <= 0.5\ngini = 0.372\nsamples = 89\nvalue = [67, 22]\nclass = False", fillcolor="#e58139ab"] ;
129 -> 130 ;
131 [label="domain_hotmail.com <= 0.5\ngini = 0.397\nsamples = 77\nvalue = [56, 21]\nclass = False", fillcolor="#e581399f"] ;
130 -> 131 ;
132 [label="org_size_21-50 <= 0.5\ngini = 0.41\nsamples = 73\nvalue = [52, 21]\nclass = False", fillcolor="#e5813998"] ;
131 -> 132 ;
133 [label="diff_time <= 16.5\ngini = 0.458\nsamples = 31\nvalue = [20, 11]\nclass = False", fillcolor="#e5813973"] ;
132 -> 133 ;
134 [label="gini = 0.0\nsamples = 4\nvalue = [4, 0]\nclass = False", fillcolor="#e58139ff"] ;
133 -> 134 ;
135 [label="diff_time <= 21.5\ngini = 0.483\nsamples = 27\nvalue = [16, 11]\nclass = False", fillcolor="#e5813950"] ;
133 -> 135 ;
136 [label="enabled_for_marketing_drip <= 0.5\ngini = 0.32\nsamples = 5\nvalue = [1, 4]\nclass = True", fillcolor="#399de5bf"] ;
135 -> 136 ;
137 [label="gini = 0.0\nsamples = 4\nvalue = [0, 4]\nclass = True", fillcolor="#399de5ff"] ;
136 -> 137 ;
138 [label="gini = 0.0\nsamples = 1\nvalue = [1, 0]\nclass = False", fillcolor="#e58139ff"] ;
136 -> 138 ;
139 [label="opted_in_to_mailing_list <= 0.5\ngini = 0.434\nsamples = 22\nvalue = [15, 7]\nclass = False", fillcolor="#e5813988"] ;
135 -> 139 ;
140 [label="diff_time <= 25.5\ngini = 0.375\nsamples = 20\nvalue = [15, 5]\nclass = False", fillcolor="#e58139aa"] ;
139 -> 140 ;
141 [label="invited_4+ <= 0.5\ngini = 0.18\nsamples = 10\nvalue = [9, 1]\nclass = False", fillcolor="#e58139e3"] ;
140 -> 141 ;
142 [label="gini = 0.0\nsamples = 9\nvalue = [9, 0]\nclass = False", fillcolor="#e58139ff"] ;
141 -> 142 ;
143 [label="gini = 0.0\nsamples = 1\nvalue = [0, 1]\nclass = True", fillcolor="#399de5ff"] ;
141 -> 143 ;
144 [label="domain_gmail.com <= 0.5\ngini = 0.48\nsamples = 10\nvalue = [6, 4]\nclass = False", fillcolor="#e5813955"] ;
140 -> 144 ;
145 [label="gini = 0.0\nsamples = 4\nvalue = [4, 0]\nclass = False", fillcolor="#e58139ff"] ;
144 -> 145 ;
146 [label="diff_time <= 27.5\ngini = 0.444\nsamples = 6\nvalue = [2, 4]\nclass = True", fillcolor="#399de57f"] ;
144 -> 146 ;
147 [label="gini = 0.0\nsamples = 3\nvalue = [0, 3]\nclass = True", fillcolor="#399de5ff"] ;
146 -> 147 ;
148 [label="diff_time <= 34.0\ngini = 0.444\nsamples = 3\nvalue = [2, 1]\nclass = False", fillcolor="#e581397f"] ;
146 -> 148 ;
149 [label="org_size_100+ <= 0.5\ngini = 0.5\nsamples = 2\nvalue = [1, 1]\nclass = False", fillcolor="#e5813900"] ;
148 -> 149 ;
150 [label="gini = 0.0\nsamples = 1\nvalue = [0, 1]\nclass = True", fillcolor="#399de5ff"] ;
149 -> 150 ;
151 [label="gini = 0.0\nsamples = 1\nvalue = [1, 0]\nclass = False", fillcolor="#e58139ff"] ;
149 -> 151 ;
152 [label="gini = 0.0\nsamples = 1\nvalue = [1, 0]\nclass = False", fillcolor="#e58139ff"] ;
148 -> 152 ;
153 [label="gini = 0.0\nsamples = 2\nvalue = [0, 2]\nclass = True", fillcolor="#399de5ff"] ;
139 -> 153 ;
154 [label="diff_time <= 16.5\ngini = 0.363\nsamples = 42\nvalue = [32, 10]\nclass = False", fillcolor="#e58139af"] ;
132 -> 154 ;
155 [label="creation_source_SIGNUP_GOOGLE_AUTH <= 0.5\ngini = 0.48\nsamples = 5\nvalue = [2, 3]\nclass = True", fillcolor="#399de555"] ;
154 -> 155 ;
156 [label="gini = 0.0\nsamples = 2\nvalue = [0, 2]\nclass = True", fillcolor="#399de5ff"] ;
155 -> 156 ;
157 [label="diff_time <= 15.5\ngini = 0.444\nsamples = 3\nvalue = [2, 1]\nclass = False", fillcolor="#e581397f"] ;
155 -> 157 ;
158 [label="enabled_for_marketing_drip <= 0.5\ngini = 0.5\nsamples = 2\nvalue = [1, 1]\nclass = False", fillcolor="#e5813900"] ;
157 -> 158 ;
159 [label="gini = 0.0\nsamples = 1\nvalue = [0, 1]\nclass = True", fillcolor="#399de5ff"] ;
158 -> 159 ;
160 [label="gini = 0.0\nsamples = 1\nvalue = [1, 0]\nclass = False", fillcolor="#e58139ff"] ;
158 -> 160 ;
161 [label="gini = 0.0\nsamples = 1\nvalue = [1, 0]\nclass = False", fillcolor="#e58139ff"] ;
157 -> 161 ;
162 [label="diff_time <= 38.5\ngini = 0.307\nsamples = 37\nvalue = [30, 7]\nclass = False", fillcolor="#e58139c4"] ;
154 -> 162 ;
163 [label="diff_time <= 24.5\ngini = 0.257\nsamples = 33\nvalue = [28, 5]\nclass = False", fillcolor="#e58139d1"] ;
162 -> 163 ;
164 [label="opted_in_to_mailing_list <= 0.5\ngini = 0.133\nsamples = 14\nvalue = [13, 1]\nclass = False", fillcolor="#e58139eb"] ;
163 -> 164 ;
165 [label="gini = 0.0\nsamples = 10\nvalue = [10, 0]\nclass = False", fillcolor="#e58139ff"] ;
164 -> 165 ;
166 [label="enabled_for_marketing_drip <= 0.5\ngini = 0.375\nsamples = 4\nvalue = [3, 1]\nclass = False", fillcolor="#e58139aa"] ;
164 -> 166 ;
167 [label="diff_time <= 21.0\ngini = 0.5\nsamples = 2\nvalue = [1, 1]\nclass = False", fillcolor="#e5813900"] ;
166 -> 167 ;
168 [label="gini = 0.0\nsamples = 1\nvalue = [0, 1]\nclass = True", fillcolor="#399de5ff"] ;
167 -> 168 ;
169 [label="gini = 0.0\nsamples = 1\nvalue = [1, 0]\nclass = False", fillcolor="#e58139ff"] ;
167 -> 169 ;
170 [label="gini = 0.0\nsamples = 2\nvalue = [2, 0]\nclass = False", fillcolor="#e58139ff"] ;
166 -> 170 ;
171 [label="domain_fake <= 0.5\ngini = 0.332\nsamples = 19\nvalue = [15, 4]\nclass = False", fillcolor="#e58139bb"] ;
163 -> 171 ;
172 [label="domain_gmail.com <= 0.5\ngini = 0.278\nsamples = 18\nvalue = [15, 3]\nclass = False", fillcolor="#e58139cc"] ;
171 -> 172 ;
173 [label="gini = 0.0\nsamples = 7\nvalue = [7, 0]\nclass = False", fillcolor="#e58139ff"] ;
172 -> 173 ;
174 [label="invited_1-3 <= 0.5\ngini = 0.397\nsamples = 11\nvalue = [8, 3]\nclass = False", fillcolor="#e581399f"] ;
172 -> 174 ;
175 [label="enabled_for_marketing_drip <= 0.5\ngini = 0.32\nsamples = 10\nvalue = [8, 2]\nclass = False", fillcolor="#e58139bf"] ;
174 -> 175 ;
176 [label="creation_source_SIGNUP_GOOGLE_AUTH <= 0.5\ngini = 0.219\nsamples = 8\nvalue = [7, 1]\nclass = False", fillcolor="#e58139db"] ;
175 -> 176 ;
177 [label="diff_time <= 30.0\ngini = 0.444\nsamples = 3\nvalue = [2, 1]\nclass = False", fillcolor="#e581397f"] ;
176 -> 177 ;
178 [label="gini = 0.5\nsamples = 2\nvalue = [1, 1]\nclass = False", fillcolor="#e5813900"] ;
177 -> 178 ;
179 [label="gini = 0.0\nsamples = 1\nvalue = [1, 0]\nclass = False", fillcolor="#e58139ff"] ;
177 -> 179 ;
180 [label="gini = 0.0\nsamples = 5\nvalue = [5, 0]\nclass = False", fillcolor="#e58139ff"] ;
176 -> 180 ;
181 [label="diff_time <= 33.0\ngini = 0.5\nsamples = 2\nvalue = [1, 1]\nclass = False", fillcolor="#e5813900"] ;
175 -> 181 ;
182 [label="gini = 0.0\nsamples = 1\nvalue = [0, 1]\nclass = True", fillcolor="#399de5ff"] ;
181 -> 182 ;
183 [label="gini = 0.0\nsamples = 1\nvalue = [1, 0]\nclass = False", fillcolor="#e58139ff"] ;
181 -> 183 ;
184 [label="gini = 0.0\nsamples = 1\nvalue = [0, 1]\nclass = True", fillcolor="#399de5ff"] ;
174 -> 184 ;
185 [label="gini = 0.0\nsamples = 1\nvalue = [0, 1]\nclass = True", fillcolor="#399de5ff"] ;
171 -> 185 ;
186 [label="diff_time <= 41.0\ngini = 0.5\nsamples = 4\nvalue = [2, 2]\nclass = False", fillcolor="#e5813900"] ;
162 -> 186 ;
187 [label="diff_time <= 39.5\ngini = 0.444\nsamples = 3\nvalue = [1, 2]\nclass = True", fillcolor="#399de57f"] ;
186 -> 187 ;
188 [label="gini = 0.5\nsamples = 2\nvalue = [1, 1]\nclass = False", fillcolor="#e5813900"] ;
187 -> 188 ;
189 [label="gini = 0.0\nsamples = 1\nvalue = [0, 1]\nclass = True", fillcolor="#399de5ff"] ;
187 -> 189 ;
190 [label="gini = 0.0\nsamples = 1\nvalue = [1, 0]\nclass = False", fillcolor="#e58139ff"] ;
186 -> 190 ;
191 [label="gini = 0.0\nsamples = 4\nvalue = [4, 0]\nclass = False", fillcolor="#e58139ff"] ;
131 -> 191 ;
192 [label="opted_in_to_mailing_list <= 0.5\ngini = 0.153\nsamples = 12\nvalue = [11, 1]\nclass = False", fillcolor="#e58139e8"] ;
130 -> 192 ;
193 [label="gini = 0.0\nsamples = 8\nvalue = [8, 0]\nclass = False", fillcolor="#e58139ff"] ;
192 -> 193 ;
194 [label="domain_yahoo.com <= 0.5\ngini = 0.375\nsamples = 4\nvalue = [3, 1]\nclass = False", fillcolor="#e58139aa"] ;
192 -> 194 ;
195 [label="enabled_for_marketing_drip <= 0.5\ngini = 0.5\nsamples = 2\nvalue = [1, 1]\nclass = False", fillcolor="#e5813900"] ;
194 -> 195 ;
196 [label="gini = 0.0\nsamples = 1\nvalue = [0, 1]\nclass = True", fillcolor="#399de5ff"] ;
195 -> 196 ;
197 [label="gini = 0.0\nsamples = 1\nvalue = [1, 0]\nclass = False", fillcolor="#e58139ff"] ;
195 -> 197 ;
198 [label="gini = 0.0\nsamples = 2\nvalue = [2, 0]\nclass = False", fillcolor="#e58139ff"] ;
194 -> 198 ;
199 [label="diff_time <= 28.5\ngini = 0.464\nsamples = 213\nvalue = [135, 78]\nclass = False", fillcolor="#e581396c"] ;
129 -> 199 ;
200 [label="diff_time <= 22.5\ngini = 0.446\nsamples = 176\nvalue = [117, 59]\nclass = False", fillcolor="#e581397e"] ;
199 -> 200 ;
201 [label="domain_gustr.com <= 0.5\ngini = 0.484\nsamples = 100\nvalue = [59, 41]\nclass = False", fillcolor="#e581394e"] ;
200 -> 201 ;
202 [label="invited_with_4+ <= 0.5\ngini = 0.471\nsamples = 92\nvalue = [57, 35]\nclass = False", fillcolor="#e5813962"] ;
201 -> 202 ;
203 [label="invited_4+ <= 0.5\ngini = 0.417\nsamples = 54\nvalue = [38, 16]\nclass = False", fillcolor="#e5813994"] ;
202 -> 203 ;
204 [label="opted_in_to_mailing_list <= 0.5\ngini = 0.393\nsamples = 52\nvalue = [38, 14]\nclass = False", fillcolor="#e58139a1"] ;
203 -> 204 ;
205 [label="domain_hotmail.com <= 0.5\ngini = 0.313\nsamples = 36\nvalue = [29, 7]\nclass = False", fillcolor="#e58139c1"] ;
204 -> 205 ;
206 [label="creation_source_ORG_INVITE <= 0.5\ngini = 0.245\nsamples = 28\nvalue = [24, 4]\nclass = False", fillcolor="#e58139d4"] ;
205 -> 206 ;
207 [label="invited_1-3 <= 0.5\ngini = 0.133\nsamples = 14\nvalue = [13, 1]\nclass = False", fillcolor="#e58139eb"] ;
206 -> 207 ;
208 [label="gini = 0.0\nsamples = 12\nvalue = [12, 0]\nclass = False", fillcolor="#e58139ff"] ;
207 -> 208 ;
209 [label="domain_fake <= 0.5\ngini = 0.5\nsamples = 2\nvalue = [1, 1]\nclass = False", fillcolor="#e5813900"] ;
207 -> 209 ;
210 [label="gini = 0.0\nsamples = 1\nvalue = [0, 1]\nclass = True", fillcolor="#399de5ff"] ;
209 -> 210 ;
211 [label="gini = 0.0\nsamples = 1\nvalue = [1, 0]\nclass = False", fillcolor="#e58139ff"] ;
209 -> 211 ;
212 [label="domain_gmail.com <= 0.5\ngini = 0.337\nsamples = 14\nvalue = [11, 3]\nclass = False", fillcolor="#e58139b9"] ;
206 -> 212 ;
213 [label="org_size_100+ <= 0.5\ngini = 0.198\nsamples = 9\nvalue = [8, 1]\nclass = False", fillcolor="#e58139df"] ;
212 -> 213 ;
214 [label="gini = 0.0\nsamples = 7\nvalue = [7, 0]\nclass = False", fillcolor="#e58139ff"] ;
213 -> 214 ;
215 [label="invited_1-3 <= 0.5\ngini = 0.5\nsamples = 2\nvalue = [1, 1]\nclass = False", fillcolor="#e5813900"] ;
213 -> 215 ;
216 [label="gini = 0.0\nsamples = 1\nvalue = [0, 1]\nclass = True", fillcolor="#399de5ff"] ;
215 -> 216 ;
217 [label="gini = 0.0\nsamples = 1\nvalue = [1, 0]\nclass = False", fillcolor="#e58139ff"] ;
215 -> 217 ;
218 [label="diff_time <= 16.5\ngini = 0.48\nsamples = 5\nvalue = [3, 2]\nclass = False", fillcolor="#e5813955"] ;
212 -> 218 ;
219 [label="gini = 0.0\nsamples = 2\nvalue = [2, 0]\nclass = False", fillcolor="#e58139ff"] ;
218 -> 219 ;
220 [label="invited_with_1-3 <= 0.5\ngini = 0.444\nsamples = 3\nvalue = [1, 2]\nclass = True", fillcolor="#399de57f"] ;
218 -> 220 ;
221 [label="diff_time <= 18.5\ngini = 0.5\nsamples = 2\nvalue = [1, 1]\nclass = False", fillcolor="#e5813900"] ;
220 -> 221 ;
222 [label="gini = 0.0\nsamples = 1\nvalue = [0, 1]\nclass = True", fillcolor="#399de5ff"] ;
221 -> 222 ;
223 [label="gini = 0.0\nsamples = 1\nvalue = [1, 0]\nclass = False", fillcolor="#e58139ff"] ;
221 -> 223 ;
224 [label="gini = 0.0\nsamples = 1\nvalue = [0, 1]\nclass = True", fillcolor="#399de5ff"] ;
220 -> 224 ;
225 [label="org_size_100+ <= 0.5\ngini = 0.469\nsamples = 8\nvalue = [5, 3]\nclass = False", fillcolor="#e5813966"] ;
205 -> 225 ;
226 [label="diff_time <= 20.5\ngini = 0.408\nsamples = 7\nvalue = [5, 2]\nclass = False", fillcolor="#e5813999"] ;
225 -> 226 ;
227 [label="diff_time <= 17.5\ngini = 0.278\nsamples = 6\nvalue = [5, 1]\nclass = False", fillcolor="#e58139cc"] ;
226 -> 227 ;
228 [label="org_size_21-50 <= 0.5\ngini = 0.444\nsamples = 3\nvalue = [2, 1]\nclass = False", fillcolor="#e581397f"] ;
227 -> 228 ;
229 [label="gini = 0.0\nsamples = 1\nvalue = [0, 1]\nclass = True", fillcolor="#399de5ff"] ;
228 -> 229 ;
230 [label="gini = 0.0\nsamples = 2\nvalue = [2, 0]\nclass = False", fillcolor="#e58139ff"] ;
228 -> 230 ;
231 [label="gini = 0.0\nsamples = 3\nvalue = [3, 0]\nclass = False", fillcolor="#e58139ff"] ;
227 -> 231 ;
232 [label="gini = 0.0\nsamples = 1\nvalue = [0, 1]\nclass = True", fillcolor="#399de5ff"] ;
226 -> 232 ;
233 [label="gini = 0.0\nsamples = 1\nvalue = [0, 1]\nclass = True", fillcolor="#399de5ff"] ;
225 -> 233 ;
234 [label="creation_source_ORG_INVITE <= 0.5\ngini = 0.492\nsamples = 16\nvalue = [9, 7]\nclass = False", fillcolor="#e5813939"] ;
204 -> 234 ;
235 [label="domain_gmail.com <= 0.5\ngini = 0.444\nsamples = 9\nvalue = [3, 6]\nclass = True", fillcolor="#399de57f"] ;
234 -> 235 ;
236 [label="org_size_51-100 <= 0.5\ngini = 0.245\nsamples = 7\nvalue = [1, 6]\nclass = True", fillcolor="#399de5d4"] ;
235 -> 236 ;
237 [label="gini = 0.0\nsamples = 5\nvalue = [0, 5]\nclass = True", fillcolor="#399de5ff"] ;
236 -> 237 ;
238 [label="diff_time <= 16.5\ngini = 0.5\nsamples = 2\nvalue = [1, 1]\nclass = False", fillcolor="#e5813900"] ;
236 -> 238 ;
239 [label="gini = 0.0\nsamples = 1\nvalue = [1, 0]\nclass = False", fillcolor="#e58139ff"] ;
238 -> 239 ;
240 [label="gini = 0.0\nsamples = 1\nvalue = [0, 1]\nclass = True", fillcolor="#399de5ff"] ;
238 -> 240 ;
241 [label="gini = 0.0\nsamples = 2\nvalue = [2, 0]\nclass = False", fillcolor="#e58139ff"] ;
235 -> 241 ;
242 [label="domain_gmail.com <= 0.5\ngini = 0.245\nsamples = 7\nvalue = [6, 1]\nclass = False", fillcolor="#e58139d4"] ;
234 -> 242 ;
243 [label="gini = 0.0\nsamples = 4\nvalue = [4, 0]\nclass = False", fillcolor="#e58139ff"] ;
242 -> 243 ;
244 [label="org_size_21-50 <= 0.5\ngini = 0.444\nsamples = 3\nvalue = [2, 1]\nclass = False", fillcolor="#e581397f"] ;
242 -> 244 ;
245 [label="gini = 0.0\nsamples = 2\nvalue = [2, 0]\nclass = False", fillcolor="#e58139ff"] ;
244 -> 245 ;
246 [label="gini = 0.0\nsamples = 1\nvalue = [0, 1]\nclass = True", fillcolor="#399de5ff"] ;
244 -> 246 ;
247 [label="gini = 0.0\nsamples = 2\nvalue = [0, 2]\nclass = True", fillcolor="#399de5ff"] ;
203 -> 247 ;
248 [label="diff_time <= 20.5\ngini = 0.5\nsamples = 38\nvalue = [19, 19]\nclass = False", fillcolor="#e5813900"] ;
202 -> 248 ;
249 [label="creation_source_ORG_INVITE <= 0.5\ngini = 0.466\nsamples = 27\nvalue = [17, 10]\nclass = False", fillcolor="#e5813969"] ;
248 -> 249 ;
250 [label="org_size_100+ <= 0.5\ngini = 0.245\nsamples = 7\nvalue = [6, 1]\nclass = False", fillcolor="#e58139d4"] ;
249 -> 250 ;
251 [label="gini = 0.0\nsamples = 5\nvalue = [5, 0]\nclass = False", fillcolor="#e58139ff"] ;
250 -> 251 ;
252 [label="opted_in_to_mailing_list <= 0.5\ngini = 0.5\nsamples = 2\nvalue = [1, 1]\nclass = False", fillcolor="#e5813900"] ;
250 -> 252 ;
253 [label="gini = 0.0\nsamples = 1\nvalue = [1, 0]\nclass = False", fillcolor="#e58139ff"] ;
252 -> 253 ;
254 [label="gini = 0.0\nsamples = 1\nvalue = [0, 1]\nclass = True", fillcolor="#399de5ff"] ;
252 -> 254 ;
255 [label="diff_time <= 19.5\ngini = 0.495\nsamples = 20\nvalue = [11, 9]\nclass = False", fillcolor="#e581392e"] ;
249 -> 255 ;
256 [label="invited_1-3 <= 0.5\ngini = 0.49\nsamples = 14\nvalue = [6, 8]\nclass = True", fillcolor="#399de540"] ;
255 -> 256 ;
257 [label="enabled_for_marketing_drip <= 0.5\ngini = 0.5\nsamples = 12\nvalue = [6, 6]\nclass = False", fillcolor="#e5813900"] ;
256 -> 257 ;
258 [label="domain_hotmail.com <= 0.5\ngini = 0.496\nsamples = 11\nvalue = [6, 5]\nclass = False", fillcolor="#e581392a"] ;
257 -> 258 ;
259 [label="domain_fake <= 0.5\ngini = 0.48\nsamples = 10\nvalue = [6, 4]\nclass = False", fillcolor="#e5813955"] ;
258 -> 259 ;
260 [label="diff_time <= 17.5\ngini = 0.494\nsamples = 9\nvalue = [5, 4]\nclass = False", fillcolor="#e5813933"] ;
259 -> 260 ;
261 [label="domain_yahoo.com <= 0.5\ngini = 0.444\nsamples = 6\nvalue = [4, 2]\nclass = False", fillcolor="#e581397f"] ;
260 -> 261 ;
262 [label="diff_time <= 15.5\ngini = 0.48\nsamples = 5\nvalue = [3, 2]\nclass = False", fillcolor="#e5813955"] ;
261 -> 262 ;
263 [label="gini = 0.0\nsamples = 1\nvalue = [0, 1]\nclass = True", fillcolor="#399de5ff"] ;
262 -> 263 ;
264 [label="domain_gmail.com <= 0.5\ngini = 0.375\nsamples = 4\nvalue = [3, 1]\nclass = False", fillcolor="#e58139aa"] ;
262 -> 264 ;
265 [label="gini = 0.0\nsamples = 1\nvalue = [0, 1]\nclass = True", fillcolor="#399de5ff"] ;
264 -> 265 ;
266 [label="gini = 0.0\nsamples = 3\nvalue = [3, 0]\nclass = False", fillcolor="#e58139ff"] ;
264 -> 266 ;
267 [label="gini = 0.0\nsamples = 1\nvalue = [1, 0]\nclass = False", fillcolor="#e58139ff"] ;
261 -> 267 ;
268 [label="opted_in_to_mailing_list <= 0.5\ngini = 0.444\nsamples = 3\nvalue = [1, 2]\nclass = True", fillcolor="#399de57f"] ;
260 -> 268 ;
269 [label="diff_time <= 18.5\ngini = 0.5\nsamples = 2\nvalue = [1, 1]\nclass = False", fillcolor="#e5813900"] ;
268 -> 269 ;
270 [label="gini = 0.0\nsamples = 1\nvalue = [0, 1]\nclass = True", fillcolor="#399de5ff"] ;
269 -> 270 ;
271 [label="gini = 0.0\nsamples = 1\nvalue = [1, 0]\nclass = False", fillcolor="#e58139ff"] ;
269 -> 271 ;
272 [label="gini = 0.0\nsamples = 1\nvalue = [0, 1]\nclass = True", fillcolor="#399de5ff"] ;
268 -> 272 ;
273 [label="gini = 0.0\nsamples = 1\nvalue = [1, 0]\nclass = False", fillcolor="#e58139ff"] ;
259 -> 273 ;
274 [label="gini = 0.0\nsamples = 1\nvalue = [0, 1]\nclass = True", fillcolor="#399de5ff"] ;
258 -> 274 ;
275 [label="gini = 0.0\nsamples = 1\nvalue = [0, 1]\nclass = True", fillcolor="#399de5ff"] ;
257 -> 275 ;
276 [label="gini = 0.0\nsamples = 2\nvalue = [0, 2]\nclass = True", fillcolor="#399de5ff"] ;
256 -> 276 ;
277 [label="domain_gmail.com <= 0.5\ngini = 0.278\nsamples = 6\nvalue = [5, 1]\nclass = False", fillcolor="#e58139cc"] ;
255 -> 277 ;
278 [label="gini = 0.0\nsamples = 3\nvalue = [3, 0]\nclass = False", fillcolor="#e58139ff"] ;
277 -> 278 ;
279 [label="org_size_100+ <= 0.5\ngini = 0.444\nsamples = 3\nvalue = [2, 1]\nclass = False", fillcolor="#e581397f"] ;
277 -> 279 ;
280 [label="gini = 0.5\nsamples = 2\nvalue = [1, 1]\nclass = False", fillcolor="#e5813900"] ;
279 -> 280 ;
281 [label="gini = 0.0\nsamples = 1\nvalue = [1, 0]\nclass = False", fillcolor="#e58139ff"] ;
279 -> 281 ;
282 [label="org_size_100+ <= 0.5\ngini = 0.298\nsamples = 11\nvalue = [2, 9]\nclass = True", fillcolor="#399de5c6"] ;
248 -> 282 ;
283 [label="domain_hotmail.com <= 0.5\ngini = 0.18\nsamples = 10\nvalue = [1, 9]\nclass = True", fillcolor="#399de5e3"] ;
282 -> 283 ;
284 [label="gini = 0.0\nsamples = 7\nvalue = [0, 7]\nclass = True", fillcolor="#399de5ff"] ;
283 -> 284 ;
285 [label="org_size_51-100 <= 0.5\ngini = 0.444\nsamples = 3\nvalue = [1, 2]\nclass = True", fillcolor="#399de57f"] ;
283 -> 285 ;
286 [label="org_size_21-50 <= 0.5\ngini = 0.5\nsamples = 2\nvalue = [1, 1]\nclass = False", fillcolor="#e5813900"] ;
285 -> 286 ;
287 [label="gini = 0.0\nsamples = 1\nvalue = [1, 0]\nclass = False", fillcolor="#e58139ff"] ;
286 -> 287 ;
288 [label="gini = 0.0\nsamples = 1\nvalue = [0, 1]\nclass = True", fillcolor="#399de5ff"] ;
286 -> 288 ;
289 [label="gini = 0.0\nsamples = 1\nvalue = [0, 1]\nclass = True", fillcolor="#399de5ff"] ;
285 -> 289 ;
290 [label="gini = 0.0\nsamples = 1\nvalue = [1, 0]\nclass = False", fillcolor="#e58139ff"] ;
282 -> 290 ;
291 [label="org_size_21-50 <= 0.5\ngini = 0.375\nsamples = 8\nvalue = [2, 6]\nclass = True", fillcolor="#399de5aa"] ;
201 -> 291 ;
292 [label="diff_time <= 17.0\ngini = 0.444\nsamples = 3\nvalue = [2, 1]\nclass = False", fillcolor="#e581397f"] ;
291 -> 292 ;
293 [label="gini = 0.0\nsamples = 1\nvalue = [0, 1]\nclass = True", fillcolor="#399de5ff"] ;
292 -> 293 ;
294 [label="gini = 0.0\nsamples = 2\nvalue = [2, 0]\nclass = False", fillcolor="#e58139ff"] ;
292 -> 294 ;
295 [label="gini = 0.0\nsamples = 5\nvalue = [0, 5]\nclass = True", fillcolor="#399de5ff"] ;
291 -> 295 ;
296 [label="domain_gmail.com <= 0.5\ngini = 0.361\nsamples = 76\nvalue = [58, 18]\nclass = False", fillcolor="#e58139b0"] ;
200 -> 296 ;
297 [label="invited_with_1-3 <= 0.5\ngini = 0.296\nsamples = 61\nvalue = [50, 11]\nclass = False", fillcolor="#e58139c7"] ;
296 -> 297 ;
298 [label="opted_in_to_mailing_list <= 0.5\ngini = 0.18\nsamples = 30\nvalue = [27, 3]\nclass = False", fillcolor="#e58139e3"] ;
297 -> 298 ;
299 [label="gini = 0.0\nsamples = 24\nvalue = [24, 0]\nclass = False", fillcolor="#e58139ff"] ;
298 -> 299 ;
300 [label="diff_time <= 24.5\ngini = 0.5\nsamples = 6\nvalue = [3, 3]\nclass = False", fillcolor="#e5813900"] ;
298 -> 300 ;
301 [label="gini = 0.0\nsamples = 1\nvalue = [1, 0]\nclass = False", fillcolor="#e58139ff"] ;
300 -> 301 ;
302 [label="diff_time <= 27.5\ngini = 0.48\nsamples = 5\nvalue = [2, 3]\nclass = True", fillcolor="#399de555"] ;
300 -> 302 ;
303 [label="diff_time <= 26.5\ngini = 0.375\nsamples = 4\nvalue = [1, 3]\nclass = True", fillcolor="#399de5aa"] ;
302 -> 303 ;
304 [label="creation_source_ORG_INVITE <= 0.5\ngini = 0.5\nsamples = 2\nvalue = [1, 1]\nclass = False", fillcolor="#e5813900"] ;
303 -> 304 ;
305 [label="gini = 0.0\nsamples = 1\nvalue = [1, 0]\nclass = False", fillcolor="#e58139ff"] ;
304 -> 305 ;
306 [label="gini = 0.0\nsamples = 1\nvalue = [0, 1]\nclass = True", fillcolor="#399de5ff"] ;
304 -> 306 ;
307 [label="gini = 0.0\nsamples = 2\nvalue = [0, 2]\nclass = True", fillcolor="#399de5ff"] ;
303 -> 307 ;
308 [label="gini = 0.0\nsamples = 1\nvalue = [1, 0]\nclass = False", fillcolor="#e58139ff"] ;
302 -> 308 ;
309 [label="org_size_100+ <= 0.5\ngini = 0.383\nsamples = 31\nvalue = [23, 8]\nclass = False", fillcolor="#e58139a6"] ;
297 -> 309 ;
310 [label="invited_1-3 <= 0.5\ngini = 0.426\nsamples = 26\nvalue = [18, 8]\nclass = False", fillcolor="#e581398e"] ;
309 -> 310 ;
311 [label="diff_time <= 24.5\ngini = 0.475\nsamples = 18\nvalue = [11, 7]\nclass = False", fillcolor="#e581395d"] ;
310 -> 311 ;
312 [label="domain_yahoo.com <= 0.5\ngini = 0.49\nsamples = 7\nvalue = [3, 4]\nclass = True", fillcolor="#399de540"] ;
311 -> 312 ;
313 [label="enabled_for_marketing_drip <= 0.5\ngini = 0.48\nsamples = 5\nvalue = [3, 2]\nclass = False", fillcolor="#e5813955"] ;
312 -> 313 ;
314 [label="creation_source_ORG_INVITE <= 0.5\ngini = 0.375\nsamples = 4\nvalue = [3, 1]\nclass = False", fillcolor="#e58139aa"] ;
313 -> 314 ;
315 [label="diff_time <= 23.5\ngini = 0.5\nsamples = 2\nvalue = [1, 1]\nclass = False", fillcolor="#e5813900"] ;
314 -> 315 ;
316 [label="gini = 0.0\nsamples = 1\nvalue = [0, 1]\nclass = True", fillcolor="#399de5ff"] ;
315 -> 316 ;
317 [label="gini = 0.0\nsamples = 1\nvalue = [1, 0]\nclass = False", fillcolor="#e58139ff"] ;
315 -> 317 ;
318 [label="gini = 0.0\nsamples = 2\nvalue = [2, 0]\nclass = False", fillcolor="#e58139ff"] ;
314 -> 318 ;
319 [label="gini = 0.0\nsamples = 1\nvalue = [0, 1]\nclass = True", fillcolor="#399de5ff"] ;
313 -> 319 ;
320 [label="gini = 0.0\nsamples = 2\nvalue = [0, 2]\nclass = True", fillcolor="#399de5ff"] ;
312 -> 320 ;
321 [label="org_size_21-50 <= 0.5\ngini = 0.397\nsamples = 11\nvalue = [8, 3]\nclass = False", fillcolor="#e581399f"] ;
311 -> 321 ;
322 [label="opted_in_to_mailing_list <= 0.5\ngini = 0.49\nsamples = 7\nvalue = [4, 3]\nclass = False", fillcolor="#e5813940"] ;
321 -> 322 ;
323 [label="domain_hotmail.com <= 0.5\ngini = 0.48\nsamples = 5\nvalue = [2, 3]\nclass = True", fillcolor="#399de555"] ;
322 -> 323 ;
324 [label="diff_time <= 27.5\ngini = 0.444\nsamples = 3\nvalue = [2, 1]\nclass = False", fillcolor="#e581397f"] ;
323 -> 324 ;
325 [label="gini = 0.0\nsamples = 2\nvalue = [2, 0]\nclass = False", fillcolor="#e58139ff"] ;
324 -> 325 ;
326 [label="gini = 0.0\nsamples = 1\nvalue = [0, 1]\nclass = True", fillcolor="#399de5ff"] ;
324 -> 326 ;
327 [label="gini = 0.0\nsamples = 2\nvalue = [0, 2]\nclass = True", fillcolor="#399de5ff"] ;
323 -> 327 ;
328 [label="gini = 0.0\nsamples = 2\nvalue = [2, 0]\nclass = False", fillcolor="#e58139ff"] ;
322 -> 328 ;
329 [label="gini = 0.0\nsamples = 4\nvalue = [4, 0]\nclass = False", fillcolor="#e58139ff"] ;
321 -> 329 ;
330 [label="diff_time <= 26.5\ngini = 0.219\nsamples = 8\nvalue = [7, 1]\nclass = False", fillcolor="#e58139db"] ;
310 -> 330 ;
331 [label="gini = 0.0\nsamples = 6\nvalue = [6, 0]\nclass = False", fillcolor="#e58139ff"] ;
330 -> 331 ;
332 [label="enabled_for_marketing_drip <= 0.5\ngini = 0.5\nsamples = 2\nvalue = [1, 1]\nclass = False", fillcolor="#e5813900"] ;
330 -> 332 ;
333 [label="gini = 0.0\nsamples = 1\nvalue = [0, 1]\nclass = True", fillcolor="#399de5ff"] ;
332 -> 333 ;
334 [label="gini = 0.0\nsamples = 1\nvalue = [1, 0]\nclass = False", fillcolor="#e58139ff"] ;
332 -> 334 ;
335 [label="gini = 0.0\nsamples = 5\nvalue = [5, 0]\nclass = False", fillcolor="#e58139ff"] ;
309 -> 335 ;
336 [label="diff_time <= 27.5\ngini = 0.498\nsamples = 15\nvalue = [8, 7]\nclass = False", fillcolor="#e5813920"] ;
296 -> 336 ;
337 [label="diff_time <= 25.5\ngini = 0.473\nsamples = 13\nvalue = [8, 5]\nclass = False", fillcolor="#e5813960"] ;
336 -> 337 ;
338 [label="org_size_21-50 <= 0.5\ngini = 0.48\nsamples = 5\nvalue = [2, 3]\nclass = True", fillcolor="#399de555"] ;
337 -> 338 ;
339 [label="gini = 0.0\nsamples = 1\nvalue = [1, 0]\nclass = False", fillcolor="#e58139ff"] ;
338 -> 339 ;
340 [label="diff_time <= 23.5\ngini = 0.375\nsamples = 4\nvalue = [1, 3]\nclass = True", fillcolor="#399de5aa"] ;
338 -> 340 ;
341 [label="gini = 0.0\nsamples = 1\nvalue = [1, 0]\nclass = False", fillcolor="#e58139ff"] ;
340 -> 341 ;
342 [label="gini = 0.0\nsamples = 3\nvalue = [0, 3]\nclass = True", fillcolor="#399de5ff"] ;
340 -> 342 ;
343 [label="opted_in_to_mailing_list <= 0.5\ngini = 0.375\nsamples = 8\nvalue = [6, 2]\nclass = False", fillcolor="#e58139aa"] ;
337 -> 343 ;
344 [label="invited_1-3 <= 0.5\ngini = 0.245\nsamples = 7\nvalue = [6, 1]\nclass = False", fillcolor="#e58139d4"] ;
343 -> 344 ;
345 [label="gini = 0.0\nsamples = 4\nvalue = [4, 0]\nclass = False", fillcolor="#e58139ff"] ;
344 -> 345 ;
346 [label="invited_with_4+ <= 0.5\ngini = 0.444\nsamples = 3\nvalue = [2, 1]\nclass = False", fillcolor="#e581397f"] ;
344 -> 346 ;
347 [label="diff_time <= 26.5\ngini = 0.5\nsamples = 2\nvalue = [1, 1]\nclass = False", fillcolor="#e5813900"] ;
346 -> 347 ;
348 [label="gini = 0.0\nsamples = 1\nvalue = [1, 0]\nclass = False", fillcolor="#e58139ff"] ;
347 -> 348 ;
349 [label="gini = 0.0\nsamples = 1\nvalue = [0, 1]\nclass = True", fillcolor="#399de5ff"] ;
347 -> 349 ;
350 [label="gini = 0.0\nsamples = 1\nvalue = [1, 0]\nclass = False", fillcolor="#e58139ff"] ;
346 -> 350 ;
351 [label="gini = 0.0\nsamples = 1\nvalue = [0, 1]\nclass = True", fillcolor="#399de5ff"] ;
343 -> 351 ;
352 [label="gini = 0.0\nsamples = 2\nvalue = [0, 2]\nclass = True", fillcolor="#399de5ff"] ;
336 -> 352 ;
353 [label="opted_in_to_mailing_list <= 0.5\ngini = 0.5\nsamples = 37\nvalue = [18, 19]\nclass = True", fillcolor="#399de50d"] ;
199 -> 353 ;
354 [label="invited_with_4+ <= 0.5\ngini = 0.48\nsamples = 30\nvalue = [12, 18]\nclass = True", fillcolor="#399de555"] ;
353 -> 354 ;
355 [label="diff_time <= 38.5\ngini = 0.486\nsamples = 12\nvalue = [7, 5]\nclass = False", fillcolor="#e5813949"] ;
354 -> 355 ;
356 [label="creation_source_ORG_INVITE <= 0.5\ngini = 0.469\nsamples = 8\nvalue = [3, 5]\nclass = True", fillcolor="#399de566"] ;
355 -> 356 ;
357 [label="gini = 0.0\nsamples = 2\nvalue = [0, 2]\nclass = True", fillcolor="#399de5ff"] ;
356 -> 357 ;
358 [label="domain_gustr.com <= 0.5\ngini = 0.5\nsamples = 6\nvalue = [3, 3]\nclass = False", fillcolor="#e5813900"] ;
356 -> 358 ;
359 [label="diff_time <= 30.0\ngini = 0.48\nsamples = 5\nvalue = [2, 3]\nclass = True", fillcolor="#399de555"] ;
358 -> 359 ;
360 [label="gini = 0.0\nsamples = 1\nvalue = [1, 0]\nclass = False", fillcolor="#e58139ff"] ;
359 -> 360 ;
361 [label="diff_time <= 35.0\ngini = 0.375\nsamples = 4\nvalue = [1, 3]\nclass = True", fillcolor="#399de5aa"] ;
359 -> 361 ;
362 [label="gini = 0.0\nsamples = 2\nvalue = [0, 2]\nclass = True", fillcolor="#399de5ff"] ;
361 -> 362 ;
363 [label="domain_gmail.com <= 0.5\ngini = 0.5\nsamples = 2\nvalue = [1, 1]\nclass = False", fillcolor="#e5813900"] ;
361 -> 363 ;
364 [label="gini = 0.0\nsamples = 1\nvalue = [1, 0]\nclass = False", fillcolor="#e58139ff"] ;
363 -> 364 ;
365 [label="gini = 0.0\nsamples = 1\nvalue = [0, 1]\nclass = True", fillcolor="#399de5ff"] ;
363 -> 365 ;
366 [label="gini = 0.0\nsamples = 1\nvalue = [1, 0]\nclass = False", fillcolor="#e58139ff"] ;
358 -> 366 ;
367 [label="gini = 0.0\nsamples = 4\nvalue = [4, 0]\nclass = False", fillcolor="#e58139ff"] ;
355 -> 367 ;
368 [label="invited_4+ <= 0.5\ngini = 0.401\nsamples = 18\nvalue = [5, 13]\nclass = True", fillcolor="#399de59d"] ;
354 -> 368 ;
369 [label="domain_yahoo.com <= 0.5\ngini = 0.36\nsamples = 17\nvalue = [4, 13]\nclass = True", fillcolor="#399de5b1"] ;
368 -> 369 ;
370 [label="invited_1-3 <= 0.5\ngini = 0.444\nsamples = 12\nvalue = [4, 8]\nclass = True", fillcolor="#399de57f"] ;
369 -> 370 ;
371 [label="org_size_21-50 <= 0.5\ngini = 0.397\nsamples = 11\nvalue = [3, 8]\nclass = True", fillcolor="#399de59f"] ;
370 -> 371 ;
372 [label="gini = 0.0\nsamples = 4\nvalue = [0, 4]\nclass = True", fillcolor="#399de5ff"] ;
371 -> 372 ;
373 [label="domain_gmail.com <= 0.5\ngini = 0.49\nsamples = 7\nvalue = [3, 4]\nclass = True", fillcolor="#399de540"] ;
371 -> 373 ;
374 [label="creation_source_ORG_INVITE <= 0.5\ngini = 0.48\nsamples = 5\nvalue = [3, 2]\nclass = False", fillcolor="#e5813955"] ;
373 -> 374 ;
375 [label="gini = 0.0\nsamples = 1\nvalue = [1, 0]\nclass = False", fillcolor="#e58139ff"] ;
374 -> 375 ;
376 [label="diff_time <= 30.0\ngini = 0.5\nsamples = 4\nvalue = [2, 2]\nclass = False", fillcolor="#e5813900"] ;
374 -> 376 ;
377 [label="gini = 0.0\nsamples = 1\nvalue = [1, 0]\nclass = False", fillcolor="#e58139ff"] ;
376 -> 377 ;
378 [label="diff_time <= 32.5\ngini = 0.444\nsamples = 3\nvalue = [1, 2]\nclass = True", fillcolor="#399de57f"] ;
376 -> 378 ;
379 [label="gini = 0.0\nsamples = 1\nvalue = [0, 1]\nclass = True", fillcolor="#399de5ff"] ;
378 -> 379 ;
380 [label="diff_time <= 35.0\ngini = 0.5\nsamples = 2\nvalue = [1, 1]\nclass = False", fillcolor="#e5813900"] ;
378 -> 380 ;
381 [label="gini = 0.0\nsamples = 1\nvalue = [1, 0]\nclass = False", fillcolor="#e58139ff"] ;
380 -> 381 ;
382 [label="gini = 0.0\nsamples = 1\nvalue = [0, 1]\nclass = True", fillcolor="#399de5ff"] ;
380 -> 382 ;
383 [label="gini = 0.0\nsamples = 2\nvalue = [0, 2]\nclass = True", fillcolor="#399de5ff"] ;
373 -> 383 ;
384 [label="gini = 0.0\nsamples = 1\nvalue = [1, 0]\nclass = False", fillcolor="#e58139ff"] ;
370 -> 384 ;
385 [label="gini = 0.0\nsamples = 5\nvalue = [0, 5]\nclass = True", fillcolor="#399de5ff"] ;
369 -> 385 ;
386 [label="gini = 0.0\nsamples = 1\nvalue = [1, 0]\nclass = False", fillcolor="#e58139ff"] ;
368 -> 386 ;
387 [label="org_size_21-50 <= 0.5\ngini = 0.245\nsamples = 7\nvalue = [6, 1]\nclass = False", fillcolor="#e58139d4"] ;
353 -> 387 ;
388 [label="gini = 0.0\nsamples = 4\nvalue = [4, 0]\nclass = False", fillcolor="#e58139ff"] ;
387 -> 388 ;
389 [label="invited_with_1-3 <= 0.5\ngini = 0.444\nsamples = 3\nvalue = [2, 1]\nclass = False", fillcolor="#e581397f"] ;
387 -> 389 ;
390 [label="gini = 0.0\nsamples = 1\nvalue = [1, 0]\nclass = False", fillcolor="#e58139ff"] ;
389 -> 390 ;
391 [label="enabled_for_marketing_drip <= 0.5\ngini = 0.5\nsamples = 2\nvalue = [1, 1]\nclass = False", fillcolor="#e5813900"] ;
389 -> 391 ;
392 [label="gini = 0.0\nsamples = 1\nvalue = [0, 1]\nclass = True", fillcolor="#399de5ff"] ;
391 -> 392 ;
393 [label="gini = 0.0\nsamples = 1\nvalue = [1, 0]\nclass = False", fillcolor="#e58139ff"] ;
391 -> 393 ;
394 [label="diff_time <= 29.5\ngini = 0.225\nsamples = 31\nvalue = [27, 4]\nclass = False", fillcolor="#e58139d9"] ;
128 -> 394 ;
395 [label="diff_time <= 28.5\ngini = 0.278\nsamples = 24\nvalue = [20, 4]\nclass = False", fillcolor="#e58139cc"] ;
394 -> 395 ;
396 [label="invited_with_1-3 <= 0.5\ngini = 0.236\nsamples = 22\nvalue = [19, 3]\nclass = False", fillcolor="#e58139d7"] ;
395 -> 396 ;
397 [label="invited_1-3 <= 0.5\ngini = 0.355\nsamples = 13\nvalue = [10, 3]\nclass = False", fillcolor="#e58139b3"] ;
396 -> 397 ;
398 [label="diff_time <= 26.5\ngini = 0.278\nsamples = 12\nvalue = [10, 2]\nclass = False", fillcolor="#e58139cc"] ;
397 -> 398 ;
399 [label="diff_time <= 21.0\ngini = 0.18\nsamples = 10\nvalue = [9, 1]\nclass = False", fillcolor="#e58139e3"] ;
398 -> 399 ;
400 [label="diff_time <= 18.5\ngini = 0.32\nsamples = 5\nvalue = [4, 1]\nclass = False", fillcolor="#e58139bf"] ;
399 -> 400 ;
401 [label="gini = 0.0\nsamples = 3\nvalue = [3, 0]\nclass = False", fillcolor="#e58139ff"] ;
400 -> 401 ;
402 [label="org_size_21-50 <= 0.5\ngini = 0.5\nsamples = 2\nvalue = [1, 1]\nclass = False", fillcolor="#e5813900"] ;
400 -> 402 ;
403 [label="gini = 0.0\nsamples = 1\nvalue = [1, 0]\nclass = False", fillcolor="#e58139ff"] ;
402 -> 403 ;
404 [label="gini = 0.0\nsamples = 1\nvalue = [0, 1]\nclass = True", fillcolor="#399de5ff"] ;
402 -> 404 ;
405 [label="gini = 0.0\nsamples = 5\nvalue = [5, 0]\nclass = False", fillcolor="#e58139ff"] ;
399 -> 405 ;
406 [label="org_size_21-50 <= 0.5\ngini = 0.5\nsamples = 2\nvalue = [1, 1]\nclass = False", fillcolor="#e5813900"] ;
398 -> 406 ;
407 [label="gini = 0.0\nsamples = 1\nvalue = [0, 1]\nclass = True", fillcolor="#399de5ff"] ;
406 -> 407 ;
408 [label="gini = 0.0\nsamples = 1\nvalue = [1, 0]\nclass = False", fillcolor="#e58139ff"] ;
406 -> 408 ;
409 [label="gini = 0.0\nsamples = 1\nvalue = [0, 1]\nclass = True", fillcolor="#399de5ff"] ;
397 -> 409 ;
410 [label="gini = 0.0\nsamples = 9\nvalue = [9, 0]\nclass = False", fillcolor="#e58139ff"] ;
396 -> 410 ;
411 [label="invited_with_4+ <= 0.5\ngini = 0.5\nsamples = 2\nvalue = [1, 1]\nclass = False", fillcolor="#e5813900"] ;
395 -> 411 ;
412 [label="gini = 0.0\nsamples = 1\nvalue = [0, 1]\nclass = True", fillcolor="#399de5ff"] ;
411 -> 412 ;
413 [label="gini = 0.0\nsamples = 1\nvalue = [1, 0]\nclass = False", fillcolor="#e58139ff"] ;
411 -> 413 ;
414 [label="gini = 0.0\nsamples = 7\nvalue = [7, 0]\nclass = False", fillcolor="#e58139ff"] ;
394 -> 414 ;
415 [label="diff_time <= 38.5\ngini = 0.494\nsamples = 79\nvalue = [44, 35]\nclass = False", fillcolor="#e5813934"] ;
127 -> 415 ;
416 [label="diff_time <= 25.5\ngini = 0.499\nsamples = 74\nvalue = [39, 35]\nclass = False", fillcolor="#e581391a"] ;
415 -> 416 ;
417 [label="invited_1-3 <= 0.5\ngini = 0.473\nsamples = 52\nvalue = [32, 20]\nclass = False", fillcolor="#e5813960"] ;
416 -> 417 ;
418 [label="domain_fake <= 0.5\ngini = 0.493\nsamples = 43\nvalue = [24, 19]\nclass = False", fillcolor="#e5813935"] ;
417 -> 418 ;
419 [label="domain_gustr.com <= 0.5\ngini = 0.485\nsamples = 41\nvalue = [24, 17]\nclass = False", fillcolor="#e581394a"] ;
418 -> 419 ;
420 [label="invited_4+ <= 0.5\ngini = 0.47\nsamples = 37\nvalue = [23, 14]\nclass = False", fillcolor="#e5813964"] ;
419 -> 420 ;
421 [label="enabled_for_marketing_drip <= 0.5\ngini = 0.461\nsamples = 36\nvalue = [23, 13]\nclass = False", fillcolor="#e581396f"] ;
420 -> 421 ;
422 [label="domain_hotmail.com <= 0.5\ngini = 0.48\nsamples = 30\nvalue = [18, 12]\nclass = False", fillcolor="#e5813955"] ;
421 -> 422 ;
423 [label="diff_time <= 16.0\ngini = 0.444\nsamples = 24\nvalue = [16, 8]\nclass = False", fillcolor="#e581397f"] ;
422 -> 423 ;
424 [label="domain_gmail.com <= 0.5\ngini = 0.444\nsamples = 3\nvalue = [1, 2]\nclass = True", fillcolor="#399de57f"] ;
423 -> 424 ;
425 [label="gini = 0.0\nsamples = 1\nvalue = [0, 1]\nclass = True", fillcolor="#399de5ff"] ;
424 -> 425 ;
426 [label="gini = 0.5\nsamples = 2\nvalue = [1, 1]\nclass = False", fillcolor="#e5813900"] ;
424 -> 426 ;
427 [label="opted_in_to_mailing_list <= 0.5\ngini = 0.408\nsamples = 21\nvalue = [15, 6]\nclass = False", fillcolor="#e5813999"] ;
423 -> 427 ;
428 [label="diff_time <= 18.5\ngini = 0.457\nsamples = 17\nvalue = [11, 6]\nclass = False", fillcolor="#e5813974"] ;
427 -> 428 ;
429 [label="domain_jourrapide.com <= 0.5\ngini = 0.278\nsamples = 6\nvalue = [5, 1]\nclass = False", fillcolor="#e58139cc"] ;
428 -> 429 ;
430 [label="gini = 0.0\nsamples = 5\nvalue = [5, 0]\nclass = False", fillcolor="#e58139ff"] ;
429 -> 430 ;
431 [label="gini = 0.0\nsamples = 1\nvalue = [0, 1]\nclass = True", fillcolor="#399de5ff"] ;
429 -> 431 ;
432 [label="org_size_21-50 <= 0.5\ngini = 0.496\nsamples = 11\nvalue = [6, 5]\nclass = False", fillcolor="#e581392a"] ;
428 -> 432 ;
433 [label="diff_time <= 24.5\ngini = 0.408\nsamples = 7\nvalue = [5, 2]\nclass = False", fillcolor="#e5813999"] ;
432 -> 433 ;
434 [label="diff_time <= 23.5\ngini = 0.48\nsamples = 5\nvalue = [3, 2]\nclass = False", fillcolor="#e5813955"] ;
433 -> 434 ;
435 [label="org_size_100+ <= 0.5\ngini = 0.375\nsamples = 4\nvalue = [3, 1]\nclass = False", fillcolor="#e58139aa"] ;
434 -> 435 ;
436 [label="gini = 0.0\nsamples = 2\nvalue = [2, 0]\nclass = False", fillcolor="#e58139ff"] ;
435 -> 436 ;
437 [label="domain_jourrapide.com <= 0.5\ngini = 0.5\nsamples = 2\nvalue = [1, 1]\nclass = False", fillcolor="#e5813900"] ;
435 -> 437 ;
438 [label="gini = 0.0\nsamples = 1\nvalue = [1, 0]\nclass = False", fillcolor="#e58139ff"] ;
437 -> 438 ;
439 [label="gini = 0.0\nsamples = 1\nvalue = [0, 1]\nclass = True", fillcolor="#399de5ff"] ;
437 -> 439 ;
440 [label="gini = 0.0\nsamples = 1\nvalue = [0, 1]\nclass = True", fillcolor="#399de5ff"] ;
434 -> 440 ;
441 [label="gini = 0.0\nsamples = 2\nvalue = [2, 0]\nclass = False", fillcolor="#e58139ff"] ;
433 -> 441 ;
442 [label="domain_yahoo.com <= 0.5\ngini = 0.375\nsamples = 4\nvalue = [1, 3]\nclass = True", fillcolor="#399de5aa"] ;
432 -> 442 ;
443 [label="domain_gmail.com <= 0.5\ngini = 0.5\nsamples = 2\nvalue = [1, 1]\nclass = False", fillcolor="#e5813900"] ;
442 -> 443 ;
444 [label="gini = 0.0\nsamples = 1\nvalue = [1, 0]\nclass = False", fillcolor="#e58139ff"] ;
443 -> 444 ;
445 [label="gini = 0.0\nsamples = 1\nvalue = [0, 1]\nclass = True", fillcolor="#399de5ff"] ;
443 -> 445 ;
446 [label="gini = 0.0\nsamples = 2\nvalue = [0, 2]\nclass = True", fillcolor="#399de5ff"] ;
442 -> 446 ;
447 [label="gini = 0.0\nsamples = 4\nvalue = [4, 0]\nclass = False", fillcolor="#e58139ff"] ;
427 -> 447 ;
448 [label="diff_time <= 18.5\ngini = 0.444\nsamples = 6\nvalue = [2, 4]\nclass = True", fillcolor="#399de57f"] ;
422 -> 448 ;
449 [label="opted_in_to_mailing_list <= 0.5\ngini = 0.444\nsamples = 3\nvalue = [2, 1]\nclass = False", fillcolor="#e581397f"] ;
448 -> 449 ;
450 [label="gini = 0.0\nsamples = 2\nvalue = [2, 0]\nclass = False", fillcolor="#e58139ff"] ;
449 -> 450 ;
451 [label="gini = 0.0\nsamples = 1\nvalue = [0, 1]\nclass = True", fillcolor="#399de5ff"] ;
449 -> 451 ;
452 [label="gini = 0.0\nsamples = 3\nvalue = [0, 3]\nclass = True", fillcolor="#399de5ff"] ;
448 -> 452 ;
453 [label="org_size_21-50 <= 0.5\ngini = 0.278\nsamples = 6\nvalue = [5, 1]\nclass = False", fillcolor="#e58139cc"] ;
421 -> 453 ;
454 [label="opted_in_to_mailing_list <= 0.5\ngini = 0.5\nsamples = 2\nvalue = [1, 1]\nclass = False", fillcolor="#e5813900"] ;
453 -> 454 ;
455 [label="gini = 0.0\nsamples = 1\nvalue = [1, 0]\nclass = False", fillcolor="#e58139ff"] ;
454 -> 455 ;
456 [label="gini = 0.0\nsamples = 1\nvalue = [0, 1]\nclass = True", fillcolor="#399de5ff"] ;
454 -> 456 ;
457 [label="gini = 0.0\nsamples = 4\nvalue = [4, 0]\nclass = False", fillcolor="#e58139ff"] ;
453 -> 457 ;
458 [label="gini = 0.0\nsamples = 1\nvalue = [0, 1]\nclass = True", fillcolor="#399de5ff"] ;
420 -> 458 ;
459 [label="org_size_21-50 <= 0.5\ngini = 0.375\nsamples = 4\nvalue = [1, 3]\nclass = True", fillcolor="#399de5aa"] ;
419 -> 459 ;
460 [label="diff_time <= 19.0\ngini = 0.5\nsamples = 2\nvalue = [1, 1]\nclass = False", fillcolor="#e5813900"] ;
459 -> 460 ;
461 [label="gini = 0.0\nsamples = 1\nvalue = [0, 1]\nclass = True", fillcolor="#399de5ff"] ;
460 -> 461 ;
462 [label="gini = 0.0\nsamples = 1\nvalue = [1, 0]\nclass = False", fillcolor="#e58139ff"] ;
460 -> 462 ;
463 [label="gini = 0.0\nsamples = 2\nvalue = [0, 2]\nclass = True", fillcolor="#399de5ff"] ;
459 -> 463 ;
464 [label="gini = 0.0\nsamples = 2\nvalue = [0, 2]\nclass = True", fillcolor="#399de5ff"] ;
418 -> 464 ;
465 [label="diff_time <= 19.5\ngini = 0.198\nsamples = 9\nvalue = [8, 1]\nclass = False", fillcolor="#e58139df"] ;
417 -> 465 ;
466 [label="diff_time <= 18.0\ngini = 0.444\nsamples = 3\nvalue = [2, 1]\nclass = False", fillcolor="#e581397f"] ;
465 -> 466 ;
467 [label="gini = 0.0\nsamples = 2\nvalue = [2, 0]\nclass = False", fillcolor="#e58139ff"] ;
466 -> 467 ;
468 [label="gini = 0.0\nsamples = 1\nvalue = [0, 1]\nclass = True", fillcolor="#399de5ff"] ;
466 -> 468 ;
469 [label="gini = 0.0\nsamples = 6\nvalue = [6, 0]\nclass = False", fillcolor="#e58139ff"] ;
465 -> 469 ;
470 [label="domain_hotmail.com <= 0.5\ngini = 0.434\nsamples = 22\nvalue = [7, 15]\nclass = True", fillcolor="#399de588"] ;
416 -> 470 ;
471 [label="diff_time <= 30.5\ngini = 0.305\nsamples = 16\nvalue = [3, 13]\nclass = True", fillcolor="#399de5c4"] ;
470 -> 471 ;
472 [label="diff_time <= 28.5\ngini = 0.397\nsamples = 11\nvalue = [3, 8]\nclass = True", fillcolor="#399de59f"] ;
471 -> 472 ;
473 [label="org_size_21-50 <= 0.5\ngini = 0.198\nsamples = 9\nvalue = [1, 8]\nclass = True", fillcolor="#399de5df"] ;
472 -> 473 ;
474 [label="invited_1-3 <= 0.5\ngini = 0.444\nsamples = 3\nvalue = [1, 2]\nclass = True", fillcolor="#399de57f"] ;
473 -> 474 ;
475 [label="gini = 0.5\nsamples = 2\nvalue = [1, 1]\nclass = False", fillcolor="#e5813900"] ;
474 -> 475 ;
476 [label="gini = 0.0\nsamples = 1\nvalue = [0, 1]\nclass = True", fillcolor="#399de5ff"] ;
474 -> 476 ;
477 [label="gini = 0.0\nsamples = 6\nvalue = [0, 6]\nclass = True", fillcolor="#399de5ff"] ;
473 -> 477 ;
478 [label="gini = 0.0\nsamples = 2\nvalue = [2, 0]\nclass = False", fillcolor="#e58139ff"] ;
472 -> 478 ;
479 [label="gini = 0.0\nsamples = 5\nvalue = [0, 5]\nclass = True", fillcolor="#399de5ff"] ;
471 -> 479 ;
480 [label="org_size_21-50 <= 0.5\ngini = 0.444\nsamples = 6\nvalue = [4, 2]\nclass = False", fillcolor="#e581397f"] ;
470 -> 480 ;
481 [label="gini = 0.0\nsamples = 3\nvalue = [3, 0]\nclass = False", fillcolor="#e58139ff"] ;
480 -> 481 ;
482 [label="diff_time <= 29.5\ngini = 0.444\nsamples = 3\nvalue = [1, 2]\nclass = True", fillcolor="#399de57f"] ;
480 -> 482 ;
483 [label="gini = 0.0\nsamples = 2\nvalue = [0, 2]\nclass = True", fillcolor="#399de5ff"] ;
482 -> 483 ;
484 [label="gini = 0.0\nsamples = 1\nvalue = [1, 0]\nclass = False", fillcolor="#e58139ff"] ;
482 -> 484 ;
485 [label="gini = 0.0\nsamples = 5\nvalue = [5, 0]\nclass = False", fillcolor="#e58139ff"] ;
415 -> 485 ;
486 [label="diff_time <= 97.5\ngini = 0.197\nsamples = 1455\nvalue = [161, 1294]\nclass = True", fillcolor="#399de5df"] ;
0 -> 486 [labeldistance=2.5, labelangle=-45, headlabel="False"] ;
487 [label="diff_time <= 75.5\ngini = 0.459\nsamples = 386\nvalue = [138, 248]\nclass = True", fillcolor="#399de571"] ;
486 -> 487 ;
488 [label="invited_4+ <= 0.5\ngini = 0.483\nsamples = 263\nvalue = [107, 156]\nclass = True", fillcolor="#399de550"] ;
487 -> 488 ;
489 [label="creation_source_ORG_INVITE <= 0.5\ngini = 0.479\nsamples = 259\nvalue = [103, 156]\nclass = True", fillcolor="#399de557"] ;
488 -> 489 ;
490 [label="diff_time <= 74.5\ngini = 0.494\nsamples = 160\nvalue = [71, 89]\nclass = True", fillcolor="#399de534"] ;
489 -> 490 ;
491 [label="domain_fake <= 0.5\ngini = 0.491\nsamples = 155\nvalue = [67, 88]\nclass = True", fillcolor="#399de53d"] ;
490 -> 491 ;
492 [label="creation_source_SIGNUP_GOOGLE_AUTH <= 0.5\ngini = 0.495\nsamples = 142\nvalue = [64, 78]\nclass = True", fillcolor="#399de52e"] ;
491 -> 492 ;
493 [label="diff_time <= 64.0\ngini = 0.5\nsamples = 105\nvalue = [51, 54]\nclass = True", fillcolor="#399de50e"] ;
492 -> 493 ;
494 [label="diff_time <= 50.5\ngini = 0.5\nsamples = 88\nvalue = [45, 43]\nclass = False", fillcolor="#e581390b"] ;
493 -> 494 ;
495 [label="invited_1-3 <= 0.5\ngini = 0.488\nsamples = 38\nvalue = [16, 22]\nclass = True", fillcolor="#399de546"] ;
494 -> 495 ;
496 [label="diff_time <= 44.5\ngini = 0.463\nsamples = 33\nvalue = [12, 21]\nclass = True", fillcolor="#399de56d"] ;
495 -> 496 ;
497 [label="domain_gmail.com <= 0.5\ngini = 0.494\nsamples = 9\nvalue = [5, 4]\nclass = False", fillcolor="#e5813933"] ;
496 -> 497 ;
498 [label="domain_yahoo.com <= 0.5\ngini = 0.32\nsamples = 5\nvalue = [4, 1]\nclass = False", fillcolor="#e58139bf"] ;
497 -> 498 ;
499 [label="gini = 0.0\nsamples = 3\nvalue = [3, 0]\nclass = False", fillcolor="#e58139ff"] ;
498 -> 499 ;
500 [label="org_size_100+ <= 0.5\ngini = 0.5\nsamples = 2\nvalue = [1, 1]\nclass = False", fillcolor="#e5813900"] ;
498 -> 500 ;
501 [label="gini = 0.0\nsamples = 1\nvalue = [0, 1]\nclass = True", fillcolor="#399de5ff"] ;
500 -> 501 ;
502 [label="gini = 0.0\nsamples = 1\nvalue = [1, 0]\nclass = False", fillcolor="#e58139ff"] ;
500 -> 502 ;
503 [label="creation_source_SIGNUP <= 0.5\ngini = 0.375\nsamples = 4\nvalue = [1, 3]\nclass = True", fillcolor="#399de5aa"] ;
497 -> 503 ;
504 [label="gini = 0.0\nsamples = 2\nvalue = [0, 2]\nclass = True", fillcolor="#399de5ff"] ;
503 -> 504 ;
505 [label="gini = 0.5\nsamples = 2\nvalue = [1, 1]\nclass = False", fillcolor="#e5813900"] ;
503 -> 505 ;
506 [label="org_size_21-50 <= 0.5\ngini = 0.413\nsamples = 24\nvalue = [7, 17]\nclass = True", fillcolor="#399de596"] ;
496 -> 506 ;
507 [label="opted_in_to_mailing_list <= 0.5\ngini = 0.278\nsamples = 12\nvalue = [2, 10]\nclass = True", fillcolor="#399de5cc"] ;
506 -> 507 ;
508 [label="gini = 0.0\nsamples = 8\nvalue = [0, 8]\nclass = True", fillcolor="#399de5ff"] ;
507 -> 508 ;
509 [label="domain_yahoo.com <= 0.5\ngini = 0.5\nsamples = 4\nvalue = [2, 2]\nclass = False", fillcolor="#e5813900"] ;
507 -> 509 ;
510 [label="is_invited <= 0.5\ngini = 0.444\nsamples = 3\nvalue = [1, 2]\nclass = True", fillcolor="#399de57f"] ;
509 -> 510 ;
511 [label="gini = 0.0\nsamples = 2\nvalue = [0, 2]\nclass = True", fillcolor="#399de5ff"] ;
510 -> 511 ;
512 [label="gini = 0.0\nsamples = 1\nvalue = [1, 0]\nclass = False", fillcolor="#e58139ff"] ;
510 -> 512 ;
513 [label="gini = 0.0\nsamples = 1\nvalue = [1, 0]\nclass = False", fillcolor="#e58139ff"] ;
509 -> 513 ;
514 [label="diff_time <= 45.5\ngini = 0.486\nsamples = 12\nvalue = [5, 7]\nclass = True", fillcolor="#399de549"] ;
506 -> 514 ;
515 [label="gini = 0.0\nsamples = 3\nvalue = [0, 3]\nclass = True", fillcolor="#399de5ff"] ;
514 -> 515 ;
516 [label="diff_time <= 48.0\ngini = 0.494\nsamples = 9\nvalue = [5, 4]\nclass = False", fillcolor="#e5813933"] ;
514 -> 516 ;
517 [label="gini = 0.0\nsamples = 2\nvalue = [2, 0]\nclass = False", fillcolor="#e58139ff"] ;
516 -> 517 ;
518 [label="domain_yahoo.com <= 0.5\ngini = 0.49\nsamples = 7\nvalue = [3, 4]\nclass = True", fillcolor="#399de540"] ;
516 -> 518 ;
519 [label="opted_in_to_mailing_list <= 0.5\ngini = 0.48\nsamples = 5\nvalue = [3, 2]\nclass = False", fillcolor="#e5813955"] ;
518 -> 519 ;
520 [label="creation_source_SIGNUP <= 0.5\ngini = 0.375\nsamples = 4\nvalue = [3, 1]\nclass = False", fillcolor="#e58139aa"] ;
519 -> 520 ;
521 [label="gini = 0.0\nsamples = 3\nvalue = [3, 0]\nclass = False", fillcolor="#e58139ff"] ;
520 -> 521 ;
522 [label="gini = 0.0\nsamples = 1\nvalue = [0, 1]\nclass = True", fillcolor="#399de5ff"] ;
520 -> 522 ;
523 [label="gini = 0.0\nsamples = 1\nvalue = [0, 1]\nclass = True", fillcolor="#399de5ff"] ;
519 -> 523 ;
524 [label="gini = 0.0\nsamples = 2\nvalue = [0, 2]\nclass = True", fillcolor="#399de5ff"] ;
518 -> 524 ;
525 [label="opted_in_to_mailing_list <= 0.5\ngini = 0.32\nsamples = 5\nvalue = [4, 1]\nclass = False", fillcolor="#e58139bf"] ;
495 -> 525 ;
526 [label="gini = 0.0\nsamples = 4\nvalue = [4, 0]\nclass = False", fillcolor="#e58139ff"] ;
525 -> 526 ;
527 [label="gini = 0.0\nsamples = 1\nvalue = [0, 1]\nclass = True", fillcolor="#399de5ff"] ;
525 -> 527 ;
528 [label="org_size_51-100 <= 0.5\ngini = 0.487\nsamples = 50\nvalue = [29, 21]\nclass = False", fillcolor="#e5813946"] ;
494 -> 528 ;
529 [label="diff_time <= 56.5\ngini = 0.474\nsamples = 44\nvalue = [27, 17]\nclass = False", fillcolor="#e581395e"] ;
528 -> 529 ;
530 [label="domain_gustr.com <= 0.5\ngini = 0.493\nsamples = 34\nvalue = [19, 15]\nclass = False", fillcolor="#e5813936"] ;
529 -> 530 ;
531 [label="domain_gmail.com <= 0.5\ngini = 0.499\nsamples = 31\nvalue = [16, 15]\nclass = False", fillcolor="#e5813910"] ;
530 -> 531 ;
532 [label="creation_source_PERSONAL_PROJECTS <= 0.5\ngini = 0.488\nsamples = 19\nvalue = [8, 11]\nclass = True", fillcolor="#399de546"] ;
531 -> 532 ;
533 [label="diff_time <= 52.5\ngini = 0.49\nsamples = 14\nvalue = [8, 6]\nclass = False", fillcolor="#e5813940"] ;
532 -> 533 ;
534 [label="gini = 0.0\nsamples = 2\nvalue = [2, 0]\nclass = False", fillcolor="#e58139ff"] ;
533 -> 534 ;
535 [label="org_size_21-50 <= 0.5\ngini = 0.5\nsamples = 12\nvalue = [6, 6]\nclass = False", fillcolor="#e5813900"] ;
533 -> 535 ;
536 [label="diff_time <= 55.5\ngini = 0.469\nsamples = 8\nvalue = [5, 3]\nclass = False", fillcolor="#e5813966"] ;
535 -> 536 ;
537 [label="invited_with_1-3 <= 0.5\ngini = 0.408\nsamples = 7\nvalue = [5, 2]\nclass = False", fillcolor="#e5813999"] ;
536 -> 537 ;
538 [label="opted_in_to_mailing_list <= 0.5\ngini = 0.48\nsamples = 5\nvalue = [3, 2]\nclass = False", fillcolor="#e5813955"] ;
537 -> 538 ;
539 [label="invited_1-3 <= 0.5\ngini = 0.5\nsamples = 4\nvalue = [2, 2]\nclass = False", fillcolor="#e5813900"] ;
538 -> 539 ;
540 [label="diff_time <= 54.0\ngini = 0.444\nsamples = 3\nvalue = [2, 1]\nclass = False", fillcolor="#e581397f"] ;
539 -> 540 ;
541 [label="gini = 0.0\nsamples = 2\nvalue = [2, 0]\nclass = False", fillcolor="#e58139ff"] ;
540 -> 541 ;
542 [label="gini = 0.0\nsamples = 1\nvalue = [0, 1]\nclass = True", fillcolor="#399de5ff"] ;
540 -> 542 ;
543 [label="gini = 0.0\nsamples = 1\nvalue = [0, 1]\nclass = True", fillcolor="#399de5ff"] ;
539 -> 543 ;
544 [label="gini = 0.0\nsamples = 1\nvalue = [1, 0]\nclass = False", fillcolor="#e58139ff"] ;
538 -> 544 ;
545 [label="gini = 0.0\nsamples = 2\nvalue = [2, 0]\nclass = False", fillcolor="#e58139ff"] ;
537 -> 545 ;
546 [label="gini = 0.0\nsamples = 1\nvalue = [0, 1]\nclass = True", fillcolor="#399de5ff"] ;
536 -> 546 ;
547 [label="domain_yahoo.com <= 0.5\ngini = 0.375\nsamples = 4\nvalue = [1, 3]\nclass = True", fillcolor="#399de5aa"] ;
535 -> 547 ;
548 [label="diff_time <= 54.5\ngini = 0.5\nsamples = 2\nvalue = [1, 1]\nclass = False", fillcolor="#e5813900"] ;
547 -> 548 ;
549 [label="gini = 0.0\nsamples = 1\nvalue = [0, 1]\nclass = True", fillcolor="#399de5ff"] ;
548 -> 549 ;
550 [label="gini = 0.0\nsamples = 1\nvalue = [1, 0]\nclass = False", fillcolor="#e58139ff"] ;
548 -> 550 ;
551 [label="gini = 0.0\nsamples = 2\nvalue = [0, 2]\nclass = True", fillcolor="#399de5ff"] ;
547 -> 551 ;
552 [label="gini = 0.0\nsamples = 5\nvalue = [0, 5]\nclass = True", fillcolor="#399de5ff"] ;
532 -> 552 ;
553 [label="invited_with_1-3 <= 0.5\ngini = 0.444\nsamples = 12\nvalue = [8, 4]\nclass = False", fillcolor="#e581397f"] ;
531 -> 553 ;
554 [label="diff_time <= 52.5\ngini = 0.32\nsamples = 10\nvalue = [8, 2]\nclass = False", fillcolor="#e58139bf"] ;
553 -> 554 ;
555 [label="creation_source_SIGNUP <= 0.5\ngini = 0.48\nsamples = 5\nvalue = [3, 2]\nclass = False", fillcolor="#e5813955"] ;
554 -> 555 ;
556 [label="diff_time <= 51.5\ngini = 0.444\nsamples = 3\nvalue = [1, 2]\nclass = True", fillcolor="#399de57f"] ;
555 -> 556 ;
557 [label="gini = 0.0\nsamples = 1\nvalue = [0, 1]\nclass = True", fillcolor="#399de5ff"] ;
556 -> 557 ;
558 [label="opted_in_to_mailing_list <= 0.5\ngini = 0.5\nsamples = 2\nvalue = [1, 1]\nclass = False", fillcolor="#e5813900"] ;
556 -> 558 ;
559 [label="gini = 0.0\nsamples = 1\nvalue = [0, 1]\nclass = True", fillcolor="#399de5ff"] ;
558 -> 559 ;
560 [label="gini = 0.0\nsamples = 1\nvalue = [1, 0]\nclass = False", fillcolor="#e58139ff"] ;
558 -> 560 ;
561 [label="gini = 0.0\nsamples = 2\nvalue = [2, 0]\nclass = False", fillcolor="#e58139ff"] ;
555 -> 561 ;
562 [label="gini = 0.0\nsamples = 5\nvalue = [5, 0]\nclass = False", fillcolor="#e58139ff"] ;
554 -> 562 ;
563 [label="gini = 0.0\nsamples = 2\nvalue = [0, 2]\nclass = True", fillcolor="#399de5ff"] ;
553 -> 563 ;
564 [label="gini = 0.0\nsamples = 3\nvalue = [3, 0]\nclass = False", fillcolor="#e58139ff"] ;
530 -> 564 ;
565 [label="domain_jourrapide.com <= 0.5\ngini = 0.32\nsamples = 10\nvalue = [8, 2]\nclass = False", fillcolor="#e58139bf"] ;
529 -> 565 ;
566 [label="invited_with_1-3 <= 0.5\ngini = 0.198\nsamples = 9\nvalue = [8, 1]\nclass = False", fillcolor="#e58139df"] ;
565 -> 566 ;
567 [label="gini = 0.0\nsamples = 7\nvalue = [7, 0]\nclass = False", fillcolor="#e58139ff"] ;
566 -> 567 ;
568 [label="enabled_for_marketing_drip <= 0.5\ngini = 0.5\nsamples = 2\nvalue = [1, 1]\nclass = False", fillcolor="#e5813900"] ;
566 -> 568 ;
569 [label="gini = 0.0\nsamples = 1\nvalue = [0, 1]\nclass = True", fillcolor="#399de5ff"] ;
568 -> 569 ;
570 [label="gini = 0.0\nsamples = 1\nvalue = [1, 0]\nclass = False", fillcolor="#e58139ff"] ;
568 -> 570 ;
571 [label="gini = 0.0\nsamples = 1\nvalue = [0, 1]\nclass = True", fillcolor="#399de5ff"] ;
565 -> 571 ;
572 [label="diff_time <= 52.5\ngini = 0.444\nsamples = 6\nvalue = [2, 4]\nclass = True", fillcolor="#399de57f"] ;
528 -> 572 ;
573 [label="gini = 0.0\nsamples = 2\nvalue = [2, 0]\nclass = False", fillcolor="#e58139ff"] ;
572 -> 573 ;
574 [label="gini = 0.0\nsamples = 4\nvalue = [0, 4]\nclass = True", fillcolor="#399de5ff"] ;
572 -> 574 ;
575 [label="org_size_51-100 <= 0.5\ngini = 0.457\nsamples = 17\nvalue = [6, 11]\nclass = True", fillcolor="#399de574"] ;
493 -> 575 ;
576 [label="diff_time <= 72.5\ngini = 0.391\nsamples = 15\nvalue = [4, 11]\nclass = True", fillcolor="#399de5a2"] ;
575 -> 576 ;
577 [label="creation_source_SIGNUP <= 0.5\ngini = 0.278\nsamples = 12\nvalue = [2, 10]\nclass = True", fillcolor="#399de5cc"] ;
576 -> 577 ;
578 [label="domain_yahoo.com <= 0.5\ngini = 0.444\nsamples = 6\nvalue = [2, 4]\nclass = True", fillcolor="#399de57f"] ;
577 -> 578 ;
579 [label="invited_with_1-3 <= 0.5\ngini = 0.444\nsamples = 3\nvalue = [2, 1]\nclass = False", fillcolor="#e581397f"] ;
578 -> 579 ;
580 [label="gini = 0.0\nsamples = 2\nvalue = [2, 0]\nclass = False", fillcolor="#e58139ff"] ;
579 -> 580 ;
581 [label="gini = 0.0\nsamples = 1\nvalue = [0, 1]\nclass = True", fillcolor="#399de5ff"] ;
579 -> 581 ;
582 [label="gini = 0.0\nsamples = 3\nvalue = [0, 3]\nclass = True", fillcolor="#399de5ff"] ;
578 -> 582 ;
583 [label="gini = 0.0\nsamples = 6\nvalue = [0, 6]\nclass = True", fillcolor="#399de5ff"] ;
577 -> 583 ;
584 [label="domain_gmail.com <= 0.5\ngini = 0.444\nsamples = 3\nvalue = [2, 1]\nclass = False", fillcolor="#e581397f"] ;
576 -> 584 ;
585 [label="gini = 0.0\nsamples = 2\nvalue = [2, 0]\nclass = False", fillcolor="#e58139ff"] ;
584 -> 585 ;
586 [label="gini = 0.0\nsamples = 1\nvalue = [0, 1]\nclass = True", fillcolor="#399de5ff"] ;
584 -> 586 ;
587 [label="gini = 0.0\nsamples = 2\nvalue = [2, 0]\nclass = False", fillcolor="#e58139ff"] ;
575 -> 587 ;
588 [label="diff_time <= 48.0\ngini = 0.456\nsamples = 37\nvalue = [13, 24]\nclass = True", fillcolor="#399de575"] ;
492 -> 588 ;
589 [label="gini = 0.0\nsamples = 4\nvalue = [0, 4]\nclass = True", fillcolor="#399de5ff"] ;
588 -> 589 ;
590 [label="diff_time <= 49.5\ngini = 0.478\nsamples = 33\nvalue = [13, 20]\nclass = True", fillcolor="#399de559"] ;
588 -> 590 ;
591 [label="gini = 0.0\nsamples = 2\nvalue = [2, 0]\nclass = False", fillcolor="#e58139ff"] ;
590 -> 591 ;
592 [label="diff_time <= 50.5\ngini = 0.458\nsamples = 31\nvalue = [11, 20]\nclass = True", fillcolor="#399de573"] ;
590 -> 592 ;
593 [label="gini = 0.0\nsamples = 2\nvalue = [0, 2]\nclass = True", fillcolor="#399de5ff"] ;
592 -> 593 ;
594 [label="diff_time <= 73.5\ngini = 0.471\nsamples = 29\nvalue = [11, 18]\nclass = True", fillcolor="#399de563"] ;
592 -> 594 ;
595 [label="diff_time <= 54.0\ngini = 0.477\nsamples = 28\nvalue = [11, 17]\nclass = True", fillcolor="#399de55a"] ;
594 -> 595 ;
596 [label="org_size_21-50 <= 0.5\ngini = 0.42\nsamples = 10\nvalue = [3, 7]\nclass = True", fillcolor="#399de592"] ;
595 -> 596 ;
597 [label="opted_in_to_mailing_list <= 0.5\ngini = 0.5\nsamples = 4\nvalue = [2, 2]\nclass = False", fillcolor="#e5813900"] ;
596 -> 597 ;
598 [label="org_size_51-100 <= 0.5\ngini = 0.444\nsamples = 3\nvalue = [2, 1]\nclass = False", fillcolor="#e581397f"] ;
597 -> 598 ;
599 [label="gini = 0.0\nsamples = 1\nvalue = [1, 0]\nclass = False", fillcolor="#e58139ff"] ;
598 -> 599 ;
600 [label="diff_time <= 52.0\ngini = 0.5\nsamples = 2\nvalue = [1, 1]\nclass = False", fillcolor="#e5813900"] ;
598 -> 600 ;
601 [label="gini = 0.0\nsamples = 1\nvalue = [1, 0]\nclass = False", fillcolor="#e58139ff"] ;
600 -> 601 ;
602 [label="gini = 0.0\nsamples = 1\nvalue = [0, 1]\nclass = True", fillcolor="#399de5ff"] ;
600 -> 602 ;
603 [label="gini = 0.0\nsamples = 1\nvalue = [0, 1]\nclass = True", fillcolor="#399de5ff"] ;
597 -> 603 ;
604 [label="opted_in_to_mailing_list <= 0.5\ngini = 0.278\nsamples = 6\nvalue = [1, 5]\nclass = True", fillcolor="#399de5cc"] ;
596 -> 604 ;
605 [label="gini = 0.0\nsamples = 5\nvalue = [0, 5]\nclass = True", fillcolor="#399de5ff"] ;
604 -> 605 ;
606 [label="gini = 0.0\nsamples = 1\nvalue = [1, 0]\nclass = False", fillcolor="#e58139ff"] ;
604 -> 606 ;
607 [label="org_size_21-50 <= 0.5\ngini = 0.494\nsamples = 18\nvalue = [8, 10]\nclass = True", fillcolor="#399de533"] ;
595 -> 607 ;
608 [label="diff_time <= 55.5\ngini = 0.444\nsamples = 9\nvalue = [3, 6]\nclass = True", fillcolor="#399de57f"] ;
607 -> 608 ;
609 [label="enabled_for_marketing_drip <= 0.5\ngini = 0.5\nsamples = 4\nvalue = [2, 2]\nclass = False", fillcolor="#e5813900"] ;
608 -> 609 ;
610 [label="gini = 0.5\nsamples = 2\nvalue = [1, 1]\nclass = False", fillcolor="#e5813900"] ;
609 -> 610 ;
611 [label="gini = 0.5\nsamples = 2\nvalue = [1, 1]\nclass = False", fillcolor="#e5813900"] ;
609 -> 611 ;
612 [label="diff_time <= 66.0\ngini = 0.32\nsamples = 5\nvalue = [1, 4]\nclass = True", fillcolor="#399de5bf"] ;
608 -> 612 ;
613 [label="gini = 0.0\nsamples = 3\nvalue = [0, 3]\nclass = True", fillcolor="#399de5ff"] ;
612 -> 613 ;
614 [label="org_size_100+ <= 0.5\ngini = 0.5\nsamples = 2\nvalue = [1, 1]\nclass = False", fillcolor="#e5813900"] ;
612 -> 614 ;
615 [label="gini = 0.0\nsamples = 1\nvalue = [0, 1]\nclass = True", fillcolor="#399de5ff"] ;
614 -> 615 ;
616 [label="gini = 0.0\nsamples = 1\nvalue = [1, 0]\nclass = False", fillcolor="#e58139ff"] ;
614 -> 616 ;
617 [label="diff_time <= 56.5\ngini = 0.494\nsamples = 9\nvalue = [5, 4]\nclass = False", fillcolor="#e5813933"] ;
607 -> 617 ;
618 [label="gini = 0.0\nsamples = 2\nvalue = [2, 0]\nclass = False", fillcolor="#e58139ff"] ;
617 -> 618 ;
619 [label="invited_1-3 <= 0.5\ngini = 0.49\nsamples = 7\nvalue = [3, 4]\nclass = True", fillcolor="#399de540"] ;
617 -> 619 ;
620 [label="diff_time <= 57.5\ngini = 0.5\nsamples = 6\nvalue = [3, 3]\nclass = False", fillcolor="#e5813900"] ;
619 -> 620 ;
621 [label="gini = 0.0\nsamples = 1\nvalue = [1, 0]\nclass = False", fillcolor="#e58139ff"] ;
620 -> 621 ;
622 [label="diff_time <= 64.0\ngini = 0.48\nsamples = 5\nvalue = [2, 3]\nclass = True", fillcolor="#399de555"] ;
620 -> 622 ;
623 [label="gini = 0.0\nsamples = 1\nvalue = [0, 1]\nclass = True", fillcolor="#399de5ff"] ;
622 -> 623 ;
624 [label="diff_time <= 70.5\ngini = 0.5\nsamples = 4\nvalue = [2, 2]\nclass = False", fillcolor="#e5813900"] ;
622 -> 624 ;
625 [label="gini = 0.0\nsamples = 1\nvalue = [1, 0]\nclass = False", fillcolor="#e58139ff"] ;
624 -> 625 ;
626 [label="opted_in_to_mailing_list <= 0.5\ngini = 0.444\nsamples = 3\nvalue = [1, 2]\nclass = True", fillcolor="#399de57f"] ;
624 -> 626 ;
627 [label="gini = 0.0\nsamples = 1\nvalue = [1, 0]\nclass = False", fillcolor="#e58139ff"] ;
626 -> 627 ;
628 [label="gini = 0.0\nsamples = 2\nvalue = [0, 2]\nclass = True", fillcolor="#399de5ff"] ;
626 -> 628 ;
629 [label="gini = 0.0\nsamples = 1\nvalue = [0, 1]\nclass = True", fillcolor="#399de5ff"] ;
619 -> 629 ;
630 [label="gini = 0.0\nsamples = 1\nvalue = [0, 1]\nclass = True", fillcolor="#399de5ff"] ;
594 -> 630 ;
631 [label="opted_in_to_mailing_list <= 0.5\ngini = 0.355\nsamples = 13\nvalue = [3, 10]\nclass = True", fillcolor="#399de5b3"] ;
491 -> 631 ;
632 [label="invited_with_4+ <= 0.5\ngini = 0.198\nsamples = 9\nvalue = [1, 8]\nclass = True", fillcolor="#399de5df"] ;
631 -> 632 ;
633 [label="gini = 0.0\nsamples = 8\nvalue = [0, 8]\nclass = True", fillcolor="#399de5ff"] ;
632 -> 633 ;
634 [label="gini = 0.0\nsamples = 1\nvalue = [1, 0]\nclass = False", fillcolor="#e58139ff"] ;
632 -> 634 ;
635 [label="org_size_51-100 <= 0.5\ngini = 0.5\nsamples = 4\nvalue = [2, 2]\nclass = False", fillcolor="#e5813900"] ;
631 -> 635 ;
636 [label="is_invited <= 0.5\ngini = 0.444\nsamples = 3\nvalue = [1, 2]\nclass = True", fillcolor="#399de57f"] ;
635 -> 636 ;
637 [label="gini = 0.0\nsamples = 1\nvalue = [1, 0]\nclass = False", fillcolor="#e58139ff"] ;
636 -> 637 ;
638 [label="gini = 0.0\nsamples = 2\nvalue = [0, 2]\nclass = True", fillcolor="#399de5ff"] ;
636 -> 638 ;
639 [label="gini = 0.0\nsamples = 1\nvalue = [1, 0]\nclass = False", fillcolor="#e58139ff"] ;
635 -> 639 ;
640 [label="creation_source_PERSONAL_PROJECTS <= 0.5\ngini = 0.32\nsamples = 5\nvalue = [4, 1]\nclass = False", fillcolor="#e58139bf"] ;
490 -> 640 ;
641 [label="gini = 0.0\nsamples = 4\nvalue = [4, 0]\nclass = False", fillcolor="#e58139ff"] ;
640 -> 641 ;
642 [label="gini = 0.0\nsamples = 1\nvalue = [0, 1]\nclass = True", fillcolor="#399de5ff"] ;
640 -> 642 ;
643 [label="diff_time <= 45.5\ngini = 0.438\nsamples = 99\nvalue = [32, 67]\nclass = True", fillcolor="#399de585"] ;
489 -> 643 ;
644 [label="diff_time <= 43.5\ngini = 0.463\nsamples = 11\nvalue = [7, 4]\nclass = False", fillcolor="#e581396d"] ;
643 -> 644 ;
645 [label="invited_with_1-3 <= 0.5\ngini = 0.48\nsamples = 5\nvalue = [2, 3]\nclass = True", fillcolor="#399de555"] ;
644 -> 645 ;
646 [label="gini = 0.0\nsamples = 2\nvalue = [0, 2]\nclass = True", fillcolor="#399de5ff"] ;
645 -> 646 ;
647 [label="domain_jourrapide.com <= 0.5\ngini = 0.444\nsamples = 3\nvalue = [2, 1]\nclass = False", fillcolor="#e581397f"] ;
645 -> 647 ;
648 [label="gini = 0.0\nsamples = 2\nvalue = [2, 0]\nclass = False", fillcolor="#e58139ff"] ;
647 -> 648 ;
649 [label="gini = 0.0\nsamples = 1\nvalue = [0, 1]\nclass = True", fillcolor="#399de5ff"] ;
647 -> 649 ;
650 [label="domain_gmail.com <= 0.5\ngini = 0.278\nsamples = 6\nvalue = [5, 1]\nclass = False", fillcolor="#e58139cc"] ;
644 -> 650 ;
651 [label="gini = 0.0\nsamples = 5\nvalue = [5, 0]\nclass = False", fillcolor="#e58139ff"] ;
650 -> 651 ;
652 [label="gini = 0.0\nsamples = 1\nvalue = [0, 1]\nclass = True", fillcolor="#399de5ff"] ;
650 -> 652 ;
653 [label="invited_1-3 <= 0.5\ngini = 0.407\nsamples = 88\nvalue = [25, 63]\nclass = True", fillcolor="#399de59a"] ;
643 -> 653 ;
654 [label="domain_jourrapide.com <= 0.5\ngini = 0.378\nsamples = 75\nvalue = [19, 56]\nclass = True", fillcolor="#399de5a8"] ;
653 -> 654 ;
655 [label="org_size_51-100 <= 0.5\ngini = 0.361\nsamples = 72\nvalue = [17, 55]\nclass = True", fillcolor="#399de5b0"] ;
654 -> 655 ;
656 [label="diff_time <= 73.5\ngini = 0.387\nsamples = 61\nvalue = [16, 45]\nclass = True", fillcolor="#399de5a4"] ;
655 -> 656 ;
657 [label="diff_time <= 72.5\ngini = 0.4\nsamples = 58\nvalue = [16, 42]\nclass = True", fillcolor="#399de59e"] ;
656 -> 657 ;
658 [label="diff_time <= 54.5\ngini = 0.388\nsamples = 57\nvalue = [15, 42]\nclass = True", fillcolor="#399de5a4"] ;
657 -> 658 ;
659 [label="enabled_for_marketing_drip <= 0.5\ngini = 0.334\nsamples = 33\nvalue = [7, 26]\nclass = True", fillcolor="#399de5ba"] ;
658 -> 659 ;
660 [label="diff_time <= 49.5\ngini = 0.278\nsamples = 30\nvalue = [5, 25]\nclass = True", fillcolor="#399de5cc"] ;
659 -> 660 ;
661 [label="gini = 0.0\nsamples = 6\nvalue = [0, 6]\nclass = True", fillcolor="#399de5ff"] ;
660 -> 661 ;
662 [label="diff_time <= 50.5\ngini = 0.33\nsamples = 24\nvalue = [5, 19]\nclass = True", fillcolor="#399de5bc"] ;
660 -> 662 ;
663 [label="domain_gmail.com <= 0.5\ngini = 0.5\nsamples = 4\nvalue = [2, 2]\nclass = False", fillcolor="#e5813900"] ;
662 -> 663 ;
664 [label="gini = 0.0\nsamples = 2\nvalue = [2, 0]\nclass = False", fillcolor="#e58139ff"] ;
663 -> 664 ;
665 [label="gini = 0.0\nsamples = 2\nvalue = [0, 2]\nclass = True", fillcolor="#399de5ff"] ;
663 -> 665 ;
666 [label="invited_with_4+ <= 0.5\ngini = 0.255\nsamples = 20\nvalue = [3, 17]\nclass = True", fillcolor="#399de5d2"] ;
662 -> 666 ;
667 [label="diff_time <= 53.0\ngini = 0.133\nsamples = 14\nvalue = [1, 13]\nclass = True", fillcolor="#399de5eb"] ;
666 -> 667 ;
668 [label="gini = 0.0\nsamples = 10\nvalue = [0, 10]\nclass = True", fillcolor="#399de5ff"] ;
667 -> 668 ;
669 [label="domain_yahoo.com <= 0.5\ngini = 0.375\nsamples = 4\nvalue = [1, 3]\nclass = True", fillcolor="#399de5aa"] ;
667 -> 669 ;
670 [label="gini = 0.0\nsamples = 2\nvalue = [0, 2]\nclass = True", fillcolor="#399de5ff"] ;
669 -> 670 ;
671 [label="org_size_21-50 <= 0.5\ngini = 0.5\nsamples = 2\nvalue = [1, 1]\nclass = False", fillcolor="#e5813900"] ;
669 -> 671 ;
672 [label="gini = 0.0\nsamples = 1\nvalue = [1, 0]\nclass = False", fillcolor="#e58139ff"] ;
671 -> 672 ;
673 [label="gini = 0.0\nsamples = 1\nvalue = [0, 1]\nclass = True", fillcolor="#399de5ff"] ;
671 -> 673 ;
674 [label="domain_gmail.com <= 0.5\ngini = 0.444\nsamples = 6\nvalue = [2, 4]\nclass = True", fillcolor="#399de57f"] ;
666 -> 674 ;
675 [label="gini = 0.0\nsamples = 4\nvalue = [0, 4]\nclass = True", fillcolor="#399de5ff"] ;
674 -> 675 ;
676 [label="gini = 0.0\nsamples = 2\nvalue = [2, 0]\nclass = False", fillcolor="#e58139ff"] ;
674 -> 676 ;
677 [label="diff_time <= 51.0\ngini = 0.444\nsamples = 3\nvalue = [2, 1]\nclass = False", fillcolor="#e581397f"] ;
659 -> 677 ;
678 [label="gini = 0.0\nsamples = 2\nvalue = [2, 0]\nclass = False", fillcolor="#e58139ff"] ;
677 -> 678 ;
679 [label="gini = 0.0\nsamples = 1\nvalue = [0, 1]\nclass = True", fillcolor="#399de5ff"] ;
677 -> 679 ;
680 [label="org_size_100+ <= 0.5\ngini = 0.444\nsamples = 24\nvalue = [8, 16]\nclass = True", fillcolor="#399de57f"] ;
658 -> 680 ;
681 [label="org_size_21-50 <= 0.5\ngini = 0.423\nsamples = 23\nvalue = [7, 16]\nclass = True", fillcolor="#399de58f"] ;
680 -> 681 ;
682 [label="domain_fake <= 0.5\ngini = 0.245\nsamples = 7\nvalue = [1, 6]\nclass = True", fillcolor="#399de5d4"] ;
681 -> 682 ;
683 [label="gini = 0.0\nsamples = 6\nvalue = [0, 6]\nclass = True", fillcolor="#399de5ff"] ;
682 -> 683 ;
684 [label="gini = 0.0\nsamples = 1\nvalue = [1, 0]\nclass = False", fillcolor="#e58139ff"] ;
682 -> 684 ;
685 [label="diff_time <= 68.5\ngini = 0.469\nsamples = 16\nvalue = [6, 10]\nclass = True", fillcolor="#399de566"] ;
681 -> 685 ;
686 [label="domain_gmail.com <= 0.5\ngini = 0.408\nsamples = 14\nvalue = [4, 10]\nclass = True", fillcolor="#399de599"] ;
685 -> 686 ;
687 [label="diff_time <= 64.0\ngini = 0.219\nsamples = 8\nvalue = [1, 7]\nclass = True", fillcolor="#399de5db"] ;
686 -> 687 ;
688 [label="gini = 0.0\nsamples = 6\nvalue = [0, 6]\nclass = True", fillcolor="#399de5ff"] ;
687 -> 688 ;
689 [label="opted_in_to_mailing_list <= 0.5\ngini = 0.5\nsamples = 2\nvalue = [1, 1]\nclass = False", fillcolor="#e5813900"] ;
687 -> 689 ;
690 [label="gini = 0.0\nsamples = 1\nvalue = [1, 0]\nclass = False", fillcolor="#e58139ff"] ;
689 -> 690 ;
691 [label="gini = 0.0\nsamples = 1\nvalue = [0, 1]\nclass = True", fillcolor="#399de5ff"] ;
689 -> 691 ;
692 [label="invited_with_1-3 <= 0.5\ngini = 0.5\nsamples = 6\nvalue = [3, 3]\nclass = False", fillcolor="#e5813900"] ;
686 -> 692 ;
693 [label="gini = 0.0\nsamples = 2\nvalue = [2, 0]\nclass = False", fillcolor="#e58139ff"] ;
692 -> 693 ;
694 [label="diff_time <= 56.5\ngini = 0.375\nsamples = 4\nvalue = [1, 3]\nclass = True", fillcolor="#399de5aa"] ;
692 -> 694 ;
695 [label="diff_time <= 55.5\ngini = 0.5\nsamples = 2\nvalue = [1, 1]\nclass = False", fillcolor="#e5813900"] ;
694 -> 695 ;
696 [label="gini = 0.0\nsamples = 1\nvalue = [0, 1]\nclass = True", fillcolor="#399de5ff"] ;
695 -> 696 ;
697 [label="gini = 0.0\nsamples = 1\nvalue = [1, 0]\nclass = False", fillcolor="#e58139ff"] ;
695 -> 697 ;
698 [label="gini = 0.0\nsamples = 2\nvalue = [0, 2]\nclass = True", fillcolor="#399de5ff"] ;
694 -> 698 ;
699 [label="gini = 0.0\nsamples = 2\nvalue = [2, 0]\nclass = False", fillcolor="#e58139ff"] ;
685 -> 699 ;
700 [label="gini = 0.0\nsamples = 1\nvalue = [1, 0]\nclass = False", fillcolor="#e58139ff"] ;
680 -> 700 ;
701 [label="gini = 0.0\nsamples = 1\nvalue = [1, 0]\nclass = False", fillcolor="#e58139ff"] ;
657 -> 701 ;
702 [label="gini = 0.0\nsamples = 3\nvalue = [0, 3]\nclass = True", fillcolor="#399de5ff"] ;
656 -> 702 ;
703 [label="diff_time <= 49.5\ngini = 0.165\nsamples = 11\nvalue = [1, 10]\nclass = True", fillcolor="#399de5e6"] ;
655 -> 703 ;
704 [label="invited_with_1-3 <= 0.5\ngini = 0.5\nsamples = 2\nvalue = [1, 1]\nclass = False", fillcolor="#e5813900"] ;
703 -> 704 ;
705 [label="gini = 0.0\nsamples = 1\nvalue = [1, 0]\nclass = False", fillcolor="#e58139ff"] ;
704 -> 705 ;
706 [label="gini = 0.0\nsamples = 1\nvalue = [0, 1]\nclass = True", fillcolor="#399de5ff"] ;
704 -> 706 ;
707 [label="gini = 0.0\nsamples = 9\nvalue = [0, 9]\nclass = True", fillcolor="#399de5ff"] ;
703 -> 707 ;
708 [label="diff_time <= 53.0\ngini = 0.444\nsamples = 3\nvalue = [2, 1]\nclass = False", fillcolor="#e581397f"] ;
654 -> 708 ;
709 [label="gini = 0.0\nsamples = 1\nvalue = [1, 0]\nclass = False", fillcolor="#e58139ff"] ;
708 -> 709 ;
710 [label="diff_time <= 62.5\ngini = 0.5\nsamples = 2\nvalue = [1, 1]\nclass = False", fillcolor="#e5813900"] ;
708 -> 710 ;
711 [label="gini = 0.0\nsamples = 1\nvalue = [0, 1]\nclass = True", fillcolor="#399de5ff"] ;
710 -> 711 ;
712 [label="gini = 0.0\nsamples = 1\nvalue = [1, 0]\nclass = False", fillcolor="#e58139ff"] ;
710 -> 712 ;
713 [label="domain_yahoo.com <= 0.5\ngini = 0.497\nsamples = 13\nvalue = [6, 7]\nclass = True", fillcolor="#399de524"] ;
653 -> 713 ;
714 [label="invited_with_4+ <= 0.5\ngini = 0.463\nsamples = 11\nvalue = [4, 7]\nclass = True", fillcolor="#399de56d"] ;
713 -> 714 ;
715 [label="diff_time <= 54.5\ngini = 0.5\nsamples = 8\nvalue = [4, 4]\nclass = False", fillcolor="#e5813900"] ;
714 -> 715 ;
716 [label="opted_in_to_mailing_list <= 0.5\ngini = 0.444\nsamples = 6\nvalue = [4, 2]\nclass = False", fillcolor="#e581397f"] ;
715 -> 716 ;
717 [label="domain_hotmail.com <= 0.5\ngini = 0.5\nsamples = 4\nvalue = [2, 2]\nclass = False", fillcolor="#e5813900"] ;
716 -> 717 ;
718 [label="diff_time <= 48.0\ngini = 0.444\nsamples = 3\nvalue = [1, 2]\nclass = True", fillcolor="#399de57f"] ;
717 -> 718 ;
719 [label="gini = 0.0\nsamples = 1\nvalue = [1, 0]\nclass = False", fillcolor="#e58139ff"] ;
718 -> 719 ;
720 [label="gini = 0.0\nsamples = 2\nvalue = [0, 2]\nclass = True", fillcolor="#399de5ff"] ;
718 -> 720 ;
721 [label="gini = 0.0\nsamples = 1\nvalue = [1, 0]\nclass = False", fillcolor="#e58139ff"] ;
717 -> 721 ;
722 [label="gini = 0.0\nsamples = 2\nvalue = [2, 0]\nclass = False", fillcolor="#e58139ff"] ;
716 -> 722 ;
723 [label="gini = 0.0\nsamples = 2\nvalue = [0, 2]\nclass = True", fillcolor="#399de5ff"] ;
715 -> 723 ;
724 [label="gini = 0.0\nsamples = 3\nvalue = [0, 3]\nclass = True", fillcolor="#399de5ff"] ;
714 -> 724 ;
725 [label="gini = 0.0\nsamples = 2\nvalue = [2, 0]\nclass = False", fillcolor="#e58139ff"] ;
713 -> 725 ;
726 [label="gini = 0.0\nsamples = 4\nvalue = [4, 0]\nclass = False", fillcolor="#e58139ff"] ;
488 -> 726 ;
727 [label="invited_with_1-3 <= 0.5\ngini = 0.377\nsamples = 123\nvalue = [31, 92]\nclass = True", fillcolor="#399de5a9"] ;
487 -> 727 ;
728 [label="creation_source_PERSONAL_PROJECTS <= 0.5\ngini = 0.312\nsamples = 93\nvalue = [18, 75]\nclass = True", fillcolor="#399de5c2"] ;
727 -> 728 ;
729 [label="domain_fake <= 0.5\ngini = 0.255\nsamples = 80\nvalue = [12, 68]\nclass = True", fillcolor="#399de5d2"] ;
728 -> 729 ;
730 [label="domain_jourrapide.com <= 0.5\ngini = 0.221\nsamples = 71\nvalue = [9, 62]\nclass = True", fillcolor="#399de5da"] ;
729 -> 730 ;
731 [label="invited_4+ <= 0.5\ngini = 0.177\nsamples = 61\nvalue = [6, 55]\nclass = True", fillcolor="#399de5e3"] ;
730 -> 731 ;
732 [label="diff_time <= 93.5\ngini = 0.155\nsamples = 59\nvalue = [5, 54]\nclass = True", fillcolor="#399de5e7"] ;
731 -> 732 ;
733 [label="diff_time <= 79.5\ngini = 0.131\nsamples = 57\nvalue = [4, 53]\nclass = True", fillcolor="#399de5ec"] ;
732 -> 733 ;
734 [label="creation_source_ORG_INVITE <= 0.5\ngini = 0.291\nsamples = 17\nvalue = [3, 14]\nclass = True", fillcolor="#399de5c8"] ;
733 -> 734 ;
735 [label="creation_source_SIGNUP <= 0.5\ngini = 0.397\nsamples = 11\nvalue = [3, 8]\nclass = True", fillcolor="#399de59f"] ;
734 -> 735 ;
736 [label="invited_1-3 <= 0.5\ngini = 0.5\nsamples = 6\nvalue = [3, 3]\nclass = False", fillcolor="#e5813900"] ;
735 -> 736 ;
737 [label="org_size_51-100 <= 0.5\ngini = 0.375\nsamples = 4\nvalue = [3, 1]\nclass = False", fillcolor="#e58139aa"] ;
736 -> 737 ;
738 [label="gini = 0.0\nsamples = 3\nvalue = [3, 0]\nclass = False", fillcolor="#e58139ff"] ;
737 -> 738 ;
739 [label="gini = 0.0\nsamples = 1\nvalue = [0, 1]\nclass = True", fillcolor="#399de5ff"] ;
737 -> 739 ;
740 [label="gini = 0.0\nsamples = 2\nvalue = [0, 2]\nclass = True", fillcolor="#399de5ff"] ;
736 -> 740 ;
741 [label="gini = 0.0\nsamples = 5\nvalue = [0, 5]\nclass = True", fillcolor="#399de5ff"] ;
735 -> 741 ;
742 [label="gini = 0.0\nsamples = 6\nvalue = [0, 6]\nclass = True", fillcolor="#399de5ff"] ;
734 -> 742 ;
743 [label="domain_yahoo.com <= 0.5\ngini = 0.049\nsamples = 40\nvalue = [1, 39]\nclass = True", fillcolor="#399de5f8"] ;
733 -> 743 ;
744 [label="gini = 0.0\nsamples = 33\nvalue = [0, 33]\nclass = True", fillcolor="#399de5ff"] ;
743 -> 744 ;
745 [label="org_size_21-50 <= 0.5\ngini = 0.245\nsamples = 7\nvalue = [1, 6]\nclass = True", fillcolor="#399de5d4"] ;
743 -> 745 ;
746 [label="invited_with_4+ <= 0.5\ngini = 0.444\nsamples = 3\nvalue = [1, 2]\nclass = True", fillcolor="#399de57f"] ;
745 -> 746 ;
747 [label="gini = 0.5\nsamples = 2\nvalue = [1, 1]\nclass = False", fillcolor="#e5813900"] ;
746 -> 747 ;
748 [label="gini = 0.0\nsamples = 1\nvalue = [0, 1]\nclass = True", fillcolor="#399de5ff"] ;
746 -> 748 ;
749 [label="gini = 0.0\nsamples = 4\nvalue = [0, 4]\nclass = True", fillcolor="#399de5ff"] ;
745 -> 749 ;
750 [label="org_size_21-50 <= 0.5\ngini = 0.5\nsamples = 2\nvalue = [1, 1]\nclass = False", fillcolor="#e5813900"] ;
732 -> 750 ;
751 [label="gini = 0.0\nsamples = 1\nvalue = [0, 1]\nclass = True", fillcolor="#399de5ff"] ;
750 -> 751 ;
752 [label="gini = 0.0\nsamples = 1\nvalue = [1, 0]\nclass = False", fillcolor="#e58139ff"] ;
750 -> 752 ;
753 [label="invited_with_4+ <= 0.5\ngini = 0.5\nsamples = 2\nvalue = [1, 1]\nclass = False", fillcolor="#e5813900"] ;
731 -> 753 ;
754 [label="gini = 0.0\nsamples = 1\nvalue = [0, 1]\nclass = True", fillcolor="#399de5ff"] ;
753 -> 754 ;
755 [label="gini = 0.0\nsamples = 1\nvalue = [1, 0]\nclass = False", fillcolor="#e58139ff"] ;
753 -> 755 ;
756 [label="opted_in_to_mailing_list <= 0.5\ngini = 0.42\nsamples = 10\nvalue = [3, 7]\nclass = True", fillcolor="#399de592"] ;
730 -> 756 ;
757 [label="diff_time <= 88.5\ngini = 0.346\nsamples = 9\nvalue = [2, 7]\nclass = True", fillcolor="#399de5b6"] ;
756 -> 757 ;
758 [label="diff_time <= 82.5\ngini = 0.444\nsamples = 6\nvalue = [2, 4]\nclass = True", fillcolor="#399de57f"] ;
757 -> 758 ;
759 [label="creation_source_SIGNUP <= 0.5\ngini = 0.32\nsamples = 5\nvalue = [1, 4]\nclass = True", fillcolor="#399de5bf"] ;
758 -> 759 ;
760 [label="gini = 0.0\nsamples = 3\nvalue = [0, 3]\nclass = True", fillcolor="#399de5ff"] ;
759 -> 760 ;
761 [label="diff_time <= 77.0\ngini = 0.5\nsamples = 2\nvalue = [1, 1]\nclass = False", fillcolor="#e5813900"] ;
759 -> 761 ;
762 [label="gini = 0.0\nsamples = 1\nvalue = [0, 1]\nclass = True", fillcolor="#399de5ff"] ;
761 -> 762 ;
763 [label="gini = 0.0\nsamples = 1\nvalue = [1, 0]\nclass = False", fillcolor="#e58139ff"] ;
761 -> 763 ;
764 [label="gini = 0.0\nsamples = 1\nvalue = [1, 0]\nclass = False", fillcolor="#e58139ff"] ;
758 -> 764 ;
765 [label="gini = 0.0\nsamples = 3\nvalue = [0, 3]\nclass = True", fillcolor="#399de5ff"] ;
757 -> 765 ;
766 [label="gini = 0.0\nsamples = 1\nvalue = [1, 0]\nclass = False", fillcolor="#e58139ff"] ;
756 -> 766 ;
767 [label="org_size_51-100 <= 0.5\ngini = 0.444\nsamples = 9\nvalue = [3, 6]\nclass = True", fillcolor="#399de57f"] ;
729 -> 767 ;
768 [label="diff_time <= 77.0\ngini = 0.245\nsamples = 7\nvalue = [1, 6]\nclass = True", fillcolor="#399de5d4"] ;
767 -> 768 ;
769 [label="gini = 0.0\nsamples = 1\nvalue = [1, 0]\nclass = False", fillcolor="#e58139ff"] ;
768 -> 769 ;
770 [label="gini = 0.0\nsamples = 6\nvalue = [0, 6]\nclass = True", fillcolor="#399de5ff"] ;
768 -> 770 ;
771 [label="gini = 0.0\nsamples = 2\nvalue = [2, 0]\nclass = False", fillcolor="#e58139ff"] ;
767 -> 771 ;
772 [label="diff_time <= 81.5\ngini = 0.497\nsamples = 13\nvalue = [6, 7]\nclass = True", fillcolor="#399de524"] ;
728 -> 772 ;
773 [label="invited_1-3 <= 0.5\ngini = 0.245\nsamples = 7\nvalue = [1, 6]\nclass = True", fillcolor="#399de5d4"] ;
772 -> 773 ;
774 [label="gini = 0.0\nsamples = 6\nvalue = [0, 6]\nclass = True", fillcolor="#399de5ff"] ;
773 -> 774 ;
775 [label="gini = 0.0\nsamples = 1\nvalue = [1, 0]\nclass = False", fillcolor="#e58139ff"] ;
773 -> 775 ;
776 [label="org_size_100+ <= 0.5\ngini = 0.278\nsamples = 6\nvalue = [5, 1]\nclass = False", fillcolor="#e58139cc"] ;
772 -> 776 ;
777 [label="gini = 0.0\nsamples = 5\nvalue = [5, 0]\nclass = False", fillcolor="#e58139ff"] ;
776 -> 777 ;
778 [label="gini = 0.0\nsamples = 1\nvalue = [0, 1]\nclass = True", fillcolor="#399de5ff"] ;
776 -> 778 ;
779 [label="org_size_21-50 <= 0.5\ngini = 0.491\nsamples = 30\nvalue = [13, 17]\nclass = True", fillcolor="#399de53c"] ;
727 -> 779 ;
780 [label="diff_time <= 94.0\ngini = 0.32\nsamples = 15\nvalue = [3, 12]\nclass = True", fillcolor="#399de5bf"] ;
779 -> 780 ;
781 [label="invited_4+ <= 0.5\ngini = 0.245\nsamples = 14\nvalue = [2, 12]\nclass = True", fillcolor="#399de5d4"] ;
780 -> 781 ;
782 [label="diff_time <= 77.5\ngini = 0.142\nsamples = 13\nvalue = [1, 12]\nclass = True", fillcolor="#399de5ea"] ;
781 -> 782 ;
783 [label="org_size_51-100 <= 0.5\ngini = 0.5\nsamples = 2\nvalue = [1, 1]\nclass = False", fillcolor="#e5813900"] ;
782 -> 783 ;
784 [label="gini = 0.0\nsamples = 1\nvalue = [1, 0]\nclass = False", fillcolor="#e58139ff"] ;
783 -> 784 ;
785 [label="gini = 0.0\nsamples = 1\nvalue = [0, 1]\nclass = True", fillcolor="#399de5ff"] ;
783 -> 785 ;
786 [label="gini = 0.0\nsamples = 11\nvalue = [0, 11]\nclass = True", fillcolor="#399de5ff"] ;
782 -> 786 ;
787 [label="gini = 0.0\nsamples = 1\nvalue = [1, 0]\nclass = False", fillcolor="#e58139ff"] ;
781 -> 787 ;
788 [label="gini = 0.0\nsamples = 1\nvalue = [1, 0]\nclass = False", fillcolor="#e58139ff"] ;
780 -> 788 ;
789 [label="domain_hotmail.com <= 0.5\ngini = 0.444\nsamples = 15\nvalue = [10, 5]\nclass = False", fillcolor="#e581397f"] ;
779 -> 789 ;
790 [label="domain_yahoo.com <= 0.5\ngini = 0.408\nsamples = 14\nvalue = [10, 4]\nclass = False", fillcolor="#e5813999"] ;
789 -> 790 ;
791 [label="domain_fake <= 0.5\ngini = 0.32\nsamples = 10\nvalue = [8, 2]\nclass = False", fillcolor="#e58139bf"] ;
790 -> 791 ;
792 [label="opted_in_to_mailing_list <= 0.5\ngini = 0.219\nsamples = 8\nvalue = [7, 1]\nclass = False", fillcolor="#e58139db"] ;
791 -> 792 ;
793 [label="gini = 0.0\nsamples = 6\nvalue = [6, 0]\nclass = False", fillcolor="#e58139ff"] ;
792 -> 793 ;
794 [label="enabled_for_marketing_drip <= 0.5\ngini = 0.5\nsamples = 2\nvalue = [1, 1]\nclass = False", fillcolor="#e5813900"] ;
792 -> 794 ;
795 [label="gini = 0.0\nsamples = 1\nvalue = [0, 1]\nclass = True", fillcolor="#399de5ff"] ;
794 -> 795 ;
796 [label="gini = 0.0\nsamples = 1\nvalue = [1, 0]\nclass = False", fillcolor="#e58139ff"] ;
794 -> 796 ;
797 [label="gini = 0.5\nsamples = 2\nvalue = [1, 1]\nclass = False", fillcolor="#e5813900"] ;
791 -> 797 ;
798 [label="diff_time <= 80.5\ngini = 0.5\nsamples = 4\nvalue = [2, 2]\nclass = False", fillcolor="#e5813900"] ;
790 -> 798 ;
799 [label="gini = 0.0\nsamples = 1\nvalue = [0, 1]\nclass = True", fillcolor="#399de5ff"] ;
798 -> 799 ;
800 [label="diff_time <= 86.5\ngini = 0.444\nsamples = 3\nvalue = [2, 1]\nclass = False", fillcolor="#e581397f"] ;
798 -> 800 ;
801 [label="gini = 0.0\nsamples = 2\nvalue = [2, 0]\nclass = False", fillcolor="#e58139ff"] ;
800 -> 801 ;
802 [label="gini = 0.0\nsamples = 1\nvalue = [0, 1]\nclass = True", fillcolor="#399de5ff"] ;
800 -> 802 ;
803 [label="gini = 0.0\nsamples = 1\nvalue = [0, 1]\nclass = True", fillcolor="#399de5ff"] ;
789 -> 803 ;
804 [label="diff_time <= 173.5\ngini = 0.042\nsamples = 1069\nvalue = [23, 1046]\nclass = True", fillcolor="#399de5f9"] ;
486 -> 804 ;
805 [label="diff_time <= 172.5\ngini = 0.155\nsamples = 260\nvalue = [22, 238]\nclass = True", fillcolor="#399de5e7"] ;
804 -> 805 ;
806 [label="creation_source_ORG_INVITE <= 0.5\ngini = 0.149\nsamples = 259\nvalue = [21, 238]\nclass = True", fillcolor="#399de5e9"] ;
805 -> 806 ;
807 [label="creation_source_SIGNUP_GOOGLE_AUTH <= 0.5\ngini = 0.102\nsamples = 167\nvalue = [9, 158]\nclass = True", fillcolor="#399de5f0"] ;
806 -> 807 ;
808 [label="org_size_21-50 <= 0.5\ngini = 0.069\nsamples = 139\nvalue = [5, 134]\nclass = True", fillcolor="#399de5f5"] ;
807 -> 808 ;
809 [label="diff_time <= 101.0\ngini = 0.14\nsamples = 66\nvalue = [5, 61]\nclass = True", fillcolor="#399de5ea"] ;
808 -> 809 ;
810 [label="gini = 0.0\nsamples = 1\nvalue = [1, 0]\nclass = False", fillcolor="#e58139ff"] ;
809 -> 810 ;
811 [label="diff_time <= 144.0\ngini = 0.116\nsamples = 65\nvalue = [4, 61]\nclass = True", fillcolor="#399de5ee"] ;
809 -> 811 ;
812 [label="diff_time <= 113.5\ngini = 0.18\nsamples = 40\nvalue = [4, 36]\nclass = True", fillcolor="#399de5e3"] ;
811 -> 812 ;
813 [label="gini = 0.0\nsamples = 18\nvalue = [0, 18]\nclass = True", fillcolor="#399de5ff"] ;
812 -> 813 ;
814 [label="creation_source_PERSONAL_PROJECTS <= 0.5\ngini = 0.298\nsamples = 22\nvalue = [4, 18]\nclass = True", fillcolor="#399de5c6"] ;
812 -> 814 ;
815 [label="diff_time <= 127.5\ngini = 0.188\nsamples = 19\nvalue = [2, 17]\nclass = True", fillcolor="#399de5e1"] ;
814 -> 815 ;
816 [label="domain_jourrapide.com <= 0.5\ngini = 0.444\nsamples = 3\nvalue = [1, 2]\nclass = True", fillcolor="#399de57f"] ;
815 -> 816 ;
817 [label="gini = 0.0\nsamples = 2\nvalue = [0, 2]\nclass = True", fillcolor="#399de5ff"] ;
816 -> 817 ;
818 [label="gini = 0.0\nsamples = 1\nvalue = [1, 0]\nclass = False", fillcolor="#e58139ff"] ;
816 -> 818 ;
819 [label="domain_fake <= 0.5\ngini = 0.117\nsamples = 16\nvalue = [1, 15]\nclass = True", fillcolor="#399de5ee"] ;
815 -> 819 ;
820 [label="gini = 0.0\nsamples = 12\nvalue = [0, 12]\nclass = True", fillcolor="#399de5ff"] ;
819 -> 820 ;
821 [label="is_invited <= 0.5\ngini = 0.375\nsamples = 4\nvalue = [1, 3]\nclass = True", fillcolor="#399de5aa"] ;
819 -> 821 ;
822 [label="gini = 0.0\nsamples = 1\nvalue = [1, 0]\nclass = False", fillcolor="#e58139ff"] ;
821 -> 822 ;
823 [label="gini = 0.0\nsamples = 3\nvalue = [0, 3]\nclass = True", fillcolor="#399de5ff"] ;
821 -> 823 ;
824 [label="domain_gmail.com <= 0.5\ngini = 0.444\nsamples = 3\nvalue = [2, 1]\nclass = False", fillcolor="#e581397f"] ;
814 -> 824 ;
825 [label="gini = 0.0\nsamples = 2\nvalue = [2, 0]\nclass = False", fillcolor="#e58139ff"] ;
824 -> 825 ;
826 [label="gini = 0.0\nsamples = 1\nvalue = [0, 1]\nclass = True", fillcolor="#399de5ff"] ;
824 -> 826 ;
827 [label="gini = 0.0\nsamples = 25\nvalue = [0, 25]\nclass = True", fillcolor="#399de5ff"] ;
811 -> 827 ;
828 [label="gini = 0.0\nsamples = 73\nvalue = [0, 73]\nclass = True", fillcolor="#399de5ff"] ;
808 -> 828 ;
829 [label="invited_1-3 <= 0.5\ngini = 0.245\nsamples = 28\nvalue = [4, 24]\nclass = True", fillcolor="#399de5d4"] ;
807 -> 829 ;
830 [label="diff_time <= 138.5\ngini = 0.211\nsamples = 25\nvalue = [3, 22]\nclass = True", fillcolor="#399de5dc"] ;
829 -> 830 ;
831 [label="diff_time <= 135.0\ngini = 0.32\nsamples = 15\nvalue = [3, 12]\nclass = True", fillcolor="#399de5bf"] ;
830 -> 831 ;
832 [label="diff_time <= 111.5\ngini = 0.245\nsamples = 14\nvalue = [2, 12]\nclass = True", fillcolor="#399de5d4"] ;
831 -> 832 ;
